svm_type c_svc
kernel_type polynomial
degree 3
gamma 0.1
coef0 0.1
nr_class 3
total_sv 30
rho -0.6578814284534029 0.015232114438408642 0.4113834023193935
label 1 2 3
probA -2.859854397651068 -2.9493805994553792 -4.339593050796842
probB -0.020092269420477937 -0.15396799407975298 -0.5524036395618626
nr_sv 10 10 10
SV
7.285273886067153E-19 2.2480051066990297E-18 1:125.0 2:185.0 3:157.0 4:191.0 5:185.0 6:207.0 7:70.0 8:177.0 9:63.0 10:233.0 11:243.0 12:77.0 13:215.0 14:103.0 15:3.0 16:218.0 17:233.0 18:231.0 19:110.0 20:20.0 21:130.0 22:180.0 23:159.0 24:187.0 25:163.0 26:237.0 27:57.0 28:71.0 29:190.0 30:95.0 31:67.0 32:177.0 33:172.0 34:182.0 35:106.0 36:73.0 37:167.0 38:27.0 39:187.0 40:145.0 41:167.0 42:180.0 43:24.0 44:211.0 45:253.0 46:191.0 47:224.0 48:235.0 49:95.0 50:123.0 51:61.0 52:92.0 53:194.0 54:120.0 55:222.0 56:173.0 57:153.0 58:10.0 59:130.0 60:60.0 61:225.0 62:165.0 63:131.0 64:31.0 65:204.0 66:41.0 67:164.0 68:207.0 69:246.0 70:19.0 71:226.0 72:26.0 73:144.0 74:160.0 75:65.0 76:107.0 77:105.0 78:206.0 79:106.0 80:152.0 81:1.0 82:173.0 83:143.0 84:151.0 85:196.0 86:15.0 87:101.0 88:255.0 89:118.0 90:243.0 91:70.0 92:82.0 93:209.0 94:35.0 95:16.0 96:125.0 97:121.0 98:206.0 99:106.0 100:140.0 101:43.0 102:217.0 103:32.0 104:154.0 105:125.0 106:209.0 107:130.0 108:232.0 109:206.0 110:64.0 111:88.0 112:10.0 113:112.0 114:216.0 115:57.0 116:228.0 117:216.0 118:104.0 119:19.0 120:107.0 121:121.0 122:115.0 123:253.0 124:101.0 125:42.0 126:94.0 127:95.0 128:61.0 129:105.0 130:236.0 131:62.0 132:237.0 133:127.0 134:125.0 135:150.0 136:50.0 137:150.0 138:117.0 139:253.0 140:109.0 141:133.0 142:197.0 143:156.0 144:251.0 145:188.0 146:191.0 147:118.0 148:252.0 149:214.0 150:27.0 151:101.0 152:16.0 153:245.0 154:227.0 155:234.0 156:97.0 157:209.0 158:106.0 159:42.0 160:74.0 161:23.0 162:175.0 163:198.0 164:31.0 165:202.0 166:43.0 167:38.0 168:252.0 169:118.0 170:243.0 171:66.0 172:231.0 173:65.0 174:224.0 175:147.0 176:200.0 177:119.0 178:110.0 179:106.0 180:95.0 181:221.0 182:54.0 183:159.0 184:53.0 185:178.0 186:30.0 187:1.0 188:151.0 189:178.0 190:253.0 191:134.0 192:252.0 193:223.0 194:167.0 195:195.0 196:219.0 197:39.0 198:103.0 199:236.0 200:20.0 201:8.0 202:172.0 203:150.0 204:25.0 205:125.0 206:253.0 207:160.0 208:71.0 209:255.0 210:23.0 211:98.0 212:17.0 213:174.0 214:128.0 215:98.0 216:221.0 217:225.0 218:42.0 219:202.0 220:16.0 221:181.0 222:104.0 223:134.0 224:31.0 225:202.0 226:11.0 227:102.0 228:233.0 229:54.0 230:162.0 231:194.0 232:146.0 233:83.0 234:225.0 235:153.0 236:88.0 237:121.0 238:236.0 239:106.0 240:206.0 241:59.0 242:143.0 243:99.0 244:238.0 245:116.0 246:146.0 247:207.0 248:117.0 249:213.0 250:64.0 251:255.0 252:198.0 253:121.0 254:235.0 255:182.0 256:228.0 257:126.0 258:238.0 259:23.0 260:239.0 261:252.0 262:109.0 263:121.0 264:70.0 265:172.0 266:75.0 267:71.0 268:184.0 269:64.0 270:174.0 271:191.0 272:40.0 273:83.0 274:113.0 275:217.0 276:51.0 277:24.0 278:244.0 279:108.0 280:106.0 281:36.0 282:177.0 283:27.0 284:88.0 285:217.0 286:205.0 287:39.0 288:105.0 289:254.0 290:169.0 291:241.0 292:24.0 293:86.0 294:211.0 295:32.0 296:16.0 297:248.0 298:186.0 299:74.0 300:64.0 301:64.0 302:36.0 303:150.0 304:158.0 305:203.0 306:43.0 307:38.0 308:238.0 309:190.0 310:163.0 311:200.0 312:9.0 313:196.0 314:226.0 315:41.0 316:218.0 317:241.0 318:103.0 319:234.0 320:4.0 321:108.0 322:253.0 323:243.0 324:74.0 325:235.0 326:72.0 327:55.0 328:233.0 329:233.0 330:148.0 331:45.0 332:40.0 333:94.0 334:245.0 335:237.0 336:54.0 337:51.0 338:90.0 339:66.0 340:122.0 341:65.0 342:55.0 343:188.0 344:101.0 345:164.0 346:46.0 347:103.0 348:190.0 349:104.0 350:175.0 351:122.0 352:76.0 353:215.0 354:49.0 355:26.0 356:114.0 357:149.0 358:70.0 359:108.0 360:44.0 361:116.0 362:47.0 363:150.0 364:138.0 365:217.0 366:43.0 367:6.0 368:207.0 369:190.0 370:165.0 371:168.0 372:9.0 373:198.0 374:162.0 375:65.0 376:18.0 377:249.0 378:207.0 379:106.0 380:112.0 381:45.0 382:243.0 383:76.0 384:127.0 385:248.0 386:159.0 387:70.0 388:252.0 389:55.0 390:186.0 391:228.0 392:236.0 393:227.0 394:227.0 395:201.0 396:48.0 397:29.0 398:200.0 399:102.0 400:110.0 401:238.0 402:86.0 403:203.0 404:63.0 405:254.0 406:223.0 407:37.0 408:180.0 409:250.0 410:178.0 411:202.0 412:129.0 413:0.0 414:0.0 415:0.0 416:0.0 417:0.0 418:0.0 419:0.0 420:0.0 421:0.0 422:0.0 423:0.0 424:0.0 425:0.0 426:0.0 427:0.0 428:0.0 429:0.0 430:0.0 431:0.0 432:0.0 433:0.0 434:0.0 435:0.0 436:0.0 437:0.0 438:0.0 439:0.0 440:0.0 441:0.0 442:0.0 443:0.0 444:0.0 445:0.0 446:0.0 447:0.0 448:0.0 449:0.0 450:0.0 451:0.0 452:0.0 453:0.0 454:0.0 455:0.0 456:0.0 457:0.0 458:0.0 459:0.0 460:0.0 461:0.0 462:0.0 463:0.0 464:0.0 465:0.0 466:0.0 467:0.0 468:0.0 469:0.0 470:0.0 471:0.0 472:0.0 473:0.0 474:0.0 475:0.0 476:0.0 477:0.0 478:0.0 479:0.0 480:0.0 481:0.0 482:0.0 483:0.0 484:0.0 485:0.0 486:0.0 487:0.0 488:0.0 489:0.0 490:0.0 491:0.0 492:0.0 493:0.0 494:0.0 495:0.0 496:0.0 497:0.0 498:0.0 499:0.0 500:0.0 501:0.0 502:0.0 503:0.0 504:0.0 505:0.0 506:0.0 507:0.0 508:0.0 509:0.0 510:0.0 511:0.0 512:0.0 513:0.0 514:0.0 515:0.0 516:0.0 517:0.0 518:0.0 519:0.0 520:0.0 521:0.0 522:0.0 523:0.0 524:0.0 525:0.0 526:0.0 527:0.0 528:0.0 529:0.0 530:0.0 531:0.0 532:0.0 533:0.0 534:0.0 535:0.0 536:0.0 537:0.0 538:0.0 539:0.0 540:0.0 541:0.0 542:0.0 543:0.0 544:0.0 545:0.0 546:0.0 547:0.0 548:0.0 549:0.0 550:0.0 551:0.0 552:0.0 553:0.0 554:0.0 555:0.0 556:0.0 557:0.0 558:0.0 559:0.0 560:0.0 561:0.0 562:0.0 563:0.0 564:0.0 565:0.0 566:0.0 567:0.0 568:0.0 569:0.0 570:0.0 571:0.0 572:0.0 573:0.0 574:0.0 575:0.0 576:0.0 577:0.0 578:0.0 579:0.0 580:0.0 581:0.0 582:0.0 583:0.0 584:0.0 585:0.0 586:0.0 587:0.0 588:0.0 589:0.0 590:0.0 591:0.0 592:0.0 593:0.0 594:0.0 595:0.0 596:0.0 597:0.0 598:0.0 599:0.0 600:0.0 601:0.0 602:0.0 603:0.0 604:0.0 605:0.0 606:0.0 607:0.0 608:0.0 609:0.0 610:0.0 611:0.0 612:0.0 613:0.0 614:0.0 615:0.0 616:0.0 617:0.0 618:0.0 619:0.0 620:0.0 621:0.0 622:0.0 623:0.0 624:0.0 625:0.0 626:0.0 627:0.0 628:0.0 629:0.0 630:0.0 631:0.0 632:0.0 633:0.0 634:0.0 635:0.0 636:0.0 637:0.0 638:0.0 639:0.0 640:0.0 
1.3565783760550679E-18 2.2765877267081304E-18 1:102.0 2:199.0 3:133.0 4:247.0 5:168.0 6:14.0 7:75.0 8:184.0 9:19.0 10:189.0 11:143.0 12:201.0 13:195.0 14:103.0 15:200.0 16:87.0 17:85.0 18:212.0 19:109.0 20:174.0 21:69.0 22:13.0 23:255.0 24:117.0 25:166.0 26:107.0 27:71.0 28:177.0 29:85.0 30:234.0 31:43.0 32:8.0 33:214.0 34:113.0 35:81.0 36:122.0 37:49.0 38:100.0 39:126.0 40:46.0 41:196.0 42:130.0 43:149.0 44:145.0 45:164.0 46:42.0 47:172.0 48:15.0 49:174.0 50:179.0 51:154.0 52:80.0 53:213.0 54:35.0 55:216.0 56:75.0 57:99.0 58:71.0 59:106.0 60:153.0 61:185.0 62:59.0 63:104.0 64:15.0 65:215.0 66:27.0 67:246.0 68:85.0 69:83.0 70:236.0 71:117.0 72:239.0 73:35.0 74:8.0 75:151.0 76:156.0 77:120.0 78:172.0 79:134.0 80:21.0 81:197.0 82:236.0 83:222.0 84:86.0 85:202.0 86:144.0 87:118.0 88:128.0 89:243.0 90:146.0 91:166.0 92:10.0 93:112.0 94:242.0 95:207.0 96:123.0 97:99.0 98:246.0 99:104.0 100:210.0 101:227.0 102:191.0 103:209.0 104:86.0 105:248.0 106:156.0 107:78.0 108:19.0 109:187.0 110:162.0 111:41.0 112:120.0 113:40.0 114:231.0 115:196.0 116:180.0 117:151.0 118:254.0 119:224.0 120:152.0 121:101.0 122:245.0 123:139.0 124:69.0 125:20.0 126:30.0 127:238.0 128:58.0 129:98.0 130:226.0 131:234.0 132:68.0 133:241.0 134:98.0 135:84.0 136:242.0 137:216.0 138:108.0 139:64.0 140:238.0 141:103.0 142:171.0 143:133.0 144:213.0 145:204.0 146:62.0 147:78.0 148:178.0 149:83.0 150:227.0 151:11.0 152:220.0 153:208.0 154:39.0 155:213.0 156:254.0 157:85.0 158:230.0 159:122.0 160:30.0 161:193.0 162:205.0 163:222.0 164:86.0 165:64.0 166:152.0 167:100.0 168:39.0 169:252.0 170:130.0 171:226.0 172:208.0 173:243.0 174:242.0 175:132.0 176:115.0 177:194.0 178:246.0 179:106.0 180:194.0 181:100.0 182:143.0 183:222.0 184:182.0 185:246.0 186:11.0 187:166.0 188:170.0 189:218.0 190:178.0 191:58.0 192:106.0 193:101.0 194:233.0 195:109.0 196:3.0 197:251.0 198:111.0 199:38.0 200:115.0 201:85.0 202:41.0 203:177.0 204:165.0 205:164.0 206:108.0 207:75.0 208:144.0 209:106.0 210:248.0 211:10.0 212:72.0 213:215.0 214:56.0 215:81.0 216:170.0 217:160.0 218:101.0 219:124.0 220:95.0 221:120.0 222:180.0 223:149.0 224:97.0 225:169.0 226:111.0 227:85.0 228:175.0 229:171.0 230:115.0 231:169.0 232:24.0 233:94.0 234:119.0 235:8.0 236:190.0 237:131.0 238:87.0 239:236.0 240:42.0 241:45.0 242:52.0 243:177.0 244:65.0 245:245.0 246:111.0 247:99.0 248:152.0 249:115.0 250:107.0 251:109.0 252:88.0 253:210.0 254:113.0 255:89.0 256:60.0 257:153.0 258:72.0 259:18.0 260:58.0 261:185.0 262:121.0 263:88.0 264:47.0 265:19.0 266:251.0 267:150.0 268:204.0 269:118.0 270:224.0 271:248.0 272:40.0 273:179.0 274:24.0 275:3.0 276:32.0 277:26.0 278:253.0 279:84.0 280:195.0 281:245.0 282:184.0 283:220.0 284:88.0 285:203.0 286:49.0 287:16.0 288:200.0 289:106.0 290:177.0 291:160.0 292:58.0 293:88.0 294:218.0 295:79.0 296:251.0 297:199.0 298:213.0 299:248.0 300:242.0 301:96.0 302:40.0 303:233.0 304:181.0 305:72.0 306:233.0 307:177.0 308:38.0 309:154.0 310:182.0 311:160.0 312:191.0 313:131.0 314:172.0 315:70.0 316:26.0 317:137.0 318:231.0 319:99.0 320:1.0 321:21.0 322:2.0 323:20.0 324:49.0 325:26.0 326:31.0 327:216.0 328:50.0 329:229.0 330:176.0 331:178.0 332:197.0 333:199.0 334:8.0 335:18.0 336:43.0 337:46.0 338:165.0 339:108.0 340:33.0 341:70.0 342:186.0 343:211.0 344:86.0 345:224.0 346:46.0 347:111.0 348:179.0 349:59.0 350:171.0 351:102.0 352:88.0 353:112.0 354:231.0 355:196.0 356:126.0 357:53.0 358:118.0 359:32.0 360:8.0 361:73.0 362:169.0 363:222.0 364:86.0 365:203.0 366:24.0 367:52.0 368:39.0 369:234.0 370:179.0 371:170.0 372:24.0 373:56.0 374:58.0 375:68.0 376:242.0 377:227.0 378:247.0 379:232.0 380:128.0 381:137.0 382:244.0 383:173.0 384:87.0 385:141.0 386:127.0 387:253.0 388:159.0 389:126.0 390:243.0 391:5.0 392:16.0 393:217.0 394:60.0 395:223.0 396:171.0 397:133.0 398:70.0 399:120.0 400:47.0 401:229.0 402:100.0 403:127.0 404:147.0 405:231.0 406:91.0 407:221.0 408:52.0 409:206.0 410:244.0 411:219.0 412:252.0 413:0.0 414:0.0 415:0.0 416:0.0 417:0.0 418:0.0 419:0.0 420:0.0 421:0.0 422:0.0 423:0.0 424:0.0 425:0.0 426:0.0 427:0.0 428:0.0 429:0.0 430:0.0 431:0.0 432:0.0 433:0.0 434:0.0 435:0.0 436:0.0 437:0.0 438:0.0 439:0.0 440:0.0 441:0.0 442:0.0 443:0.0 444:0.0 445:0.0 446:0.0 447:0.0 448:0.0 449:0.0 450:0.0 451:0.0 452:0.0 453:0.0 454:0.0 455:0.0 456:0.0 457:0.0 458:0.0 459:0.0 460:0.0 461:0.0 462:0.0 463:0.0 464:0.0 465:0.0 466:0.0 467:0.0 468:0.0 469:0.0 470:0.0 471:0.0 472:0.0 473:0.0 474:0.0 475:0.0 476:0.0 477:0.0 478:0.0 479:0.0 480:0.0 481:0.0 482:0.0 483:0.0 484:0.0 485:0.0 486:0.0 487:0.0 488:0.0 489:0.0 490:0.0 491:0.0 492:0.0 493:0.0 494:0.0 495:0.0 496:0.0 497:0.0 498:0.0 499:0.0 500:0.0 501:0.0 502:0.0 503:0.0 504:0.0 505:0.0 506:0.0 507:0.0 508:0.0 509:0.0 510:0.0 511:0.0 512:0.0 513:0.0 514:0.0 515:0.0 516:0.0 517:0.0 518:0.0 519:0.0 520:0.0 521:0.0 522:0.0 523:0.0 524:0.0 525:0.0 526:0.0 527:0.0 528:0.0 529:0.0 530:0.0 531:0.0 532:0.0 533:0.0 534:0.0 535:0.0 536:0.0 537:0.0 538:0.0 539:0.0 540:0.0 541:0.0 542:0.0 543:0.0 544:0.0 545:0.0 546:0.0 547:0.0 548:0.0 549:0.0 550:0.0 551:0.0 552:0.0 553:0.0 554:0.0 555:0.0 556:0.0 557:0.0 558:0.0 559:0.0 560:0.0 561:0.0 562:0.0 563:0.0 564:0.0 565:0.0 566:0.0 567:0.0 568:0.0 569:0.0 570:0.0 571:0.0 572:0.0 573:0.0 574:0.0 575:0.0 576:0.0 577:0.0 578:0.0 579:0.0 580:0.0 581:0.0 582:0.0 583:0.0 584:0.0 585:0.0 586:0.0 587:0.0 588:0.0 589:0.0 590:0.0 591:0.0 592:0.0 593:0.0 594:0.0 595:0.0 596:0.0 597:0.0 598:0.0 599:0.0 600:0.0 601:0.0 602:0.0 603:0.0 604:0.0 605:0.0 606:0.0 607:0.0 608:0.0 609:0.0 610:0.0 611:0.0 612:0.0 613:0.0 614:0.0 615:0.0 616:0.0 617:0.0 618:0.0 619:0.0 620:0.0 621:0.0 622:0.0 623:0.0 624:0.0 625:0.0 626:0.0 627:0.0 628:0.0 629:0.0 630:0.0 631:0.0 632:0.0 633:0.0 634:0.0 635:0.0 636:0.0 637:0.0 638:0.0 639:0.0 640:0.0 
2.3651295239179996E-18 2.409144756804076E-18 1:44.0 2:37.0 3:185.0 4:107.0 5:141.0 6:111.0 7:87.0 8:156.0 9:71.0 10:166.0 11:173.0 12:8.0 13:219.0 14:121.0 15:89.0 16:56.0 17:216.0 18:220.0 19:88.0 20:42.0 21:3.0 22:205.0 23:42.0 24:184.0 25:29.0 26:197.0 27:140.0 28:239.0 29:20.0 30:69.0 31:200.0 32:3.0 33:176.0 34:142.0 35:50.0 36:64.0 37:200.0 38:43.0 39:27.0 40:197.0 41:80.0 42:120.0 43:25.0 44:245.0 45:40.0 46:205.0 47:81.0 48:54.0 49:174.0 50:168.0 51:162.0 52:72.0 53:183.0 54:151.0 55:1.0 56:112.0 57:132.0 58:55.0 59:124.0 60:8.0 61:16.0 62:205.0 63:2.0 64:190.0 65:212.0 66:195.0 67:174.0 68:231.0 69:158.0 70:1.0 71:216.0 72:2.0 73:244.0 74:248.0 75:48.0 76:64.0 77:248.0 78:251.0 79:19.0 80:193.0 81:3.0 82:153.0 83:106.0 84:153.0 85:118.0 86:135.0 87:184.0 88:119.0 89:92.0 90:73.0 91:92.0 92:103.0 93:56.0 94:158.0 95:182.0 96:96.0 97:238.0 98:43.0 99:19.0 100:133.0 101:198.0 102:190.0 103:188.0 104:186.0 105:139.0 106:244.0 107:149.0 108:207.0 109:154.0 110:159.0 111:133.0 112:181.0 113:196.0 114:254.0 115:111.0 116:75.0 117:133.0 118:83.0 119:233.0 120:147.0 121:2.0 122:133.0 123:41.0 124:187.0 125:212.0 126:229.0 127:169.0 128:79.0 129:22.0 130:17.0 131:73.0 132:18.0 133:180.0 134:255.0 135:56.0 136:96.0 137:217.0 138:27.0 139:19.0 140:153.0 141:41.0 142:157.0 143:115.0 144:88.0 145:245.0 146:205.0 147:235.0 148:119.0 149:127.0 150:73.0 151:126.0 152:64.0 153:186.0 154:149.0 155:180.0 156:244.0 157:196.0 158:42.0 159:22.0 160:12.0 161:167.0 162:196.0 163:173.0 164:219.0 165:205.0 166:117.0 167:173.0 168:239.0 169:86.0 170:83.0 171:69.0 172:19.0 173:240.0 174:124.0 175:63.0 176:109.0 177:217.0 178:74.0 179:51.0 180:159.0 181:237.0 182:61.0 183:177.0 184:69.0 185:253.0 186:111.0 187:67.0 188:152.0 189:123.0 190:232.0 191:108.0 192:8.0 193:222.0 194:117.0 195:69.0 196:52.0 197:153.0 198:220.0 199:102.0 200:122.0 201:105.0 202:181.0 203:177.0 204:97.0 205:213.0 206:221.0 207:67.0 208:63.0 209:115.0 210:233.0 211:108.0 212:8.0 213:186.0 214:53.0 215:64.0 216:180.0 217:145.0 218:222.0 219:64.0 220:24.0 221:33.0 222:188.0 223:107.0 224:95.0 225:244.0 226:255.0 227:251.0 228:246.0 229:94.0 230:107.0 231:124.0 232:94.0 233:176.0 234:188.0 235:182.0 236:32.0 237:221.0 238:106.0 239:22.0 240:13.0 241:49.0 242:221.0 243:27.0 244:234.0 245:84.0 246:135.0 247:231.0 248:248.0 249:30.0 250:0.0 251:105.0 252:66.0 253:117.0 254:209.0 255:40.0 256:96.0 257:120.0 258:122.0 259:18.0 260:107.0 261:19.0 262:223.0 263:103.0 264:223.0 265:54.0 266:130.0 267:175.0 268:244.0 269:148.0 270:64.0 271:218.0 272:230.0 273:241.0 274:231.0 275:181.0 276:100.0 277:126.0 278:106.0 279:31.0 280:207.0 281:49.0 282:221.0 283:41.0 284:239.0 285:156.0 286:133.0 287:206.0 288:252.0 289:84.0 290:72.0 291:220.0 292:70.0 293:115.0 294:248.0 295:60.0 296:96.0 297:216.0 298:106.0 299:19.0 300:235.0 301:56.0 302:0.0 303:115.0 304:169.0 305:85.0 306:231.0 307:241.0 308:114.0 309:69.0 310:68.0 311:92.0 312:2.0 313:35.0 314:28.0 315:48.0 316:100.0 317:88.0 318:40.0 319:23.0 320:41.0 321:27.0 322:205.0 323:98.0 324:222.0 325:54.0 326:128.0 327:175.0 328:247.0 329:132.0 330:8.0 331:94.0 332:162.0 333:57.0 334:222.0 335:184.0 336:96.0 337:110.0 338:171.0 339:23.0 340:205.0 341:17.0 342:31.0 343:11.0 344:175.0 345:18.0 346:130.0 347:42.0 348:55.0 349:52.0 350:128.0 351:74.0 352:230.0 353:245.0 354:99.0 355:161.0 356:64.0 357:54.0 358:111.0 359:8.0 360:238.0 361:88.0 362:252.0 363:250.0 364:240.0 365:170.0 366:232.0 367:21.0 368:199.0 369:179.0 370:159.0 371:188.0 372:57.0 373:63.0 374:183.0 375:66.0 376:90.0 377:167.0 378:247.0 379:237.0 380:144.0 381:45.0 382:205.0 383:98.0 384:210.0 385:213.0 386:221.0 387:199.0 388:220.0 389:87.0 390:101.0 391:220.0 392:10.0 393:115.0 394:193.0 395:191.0 396:164.0 397:89.0 398:234.0 399:18.0 400:126.0 401:235.0 402:178.0 403:58.0 404:191.0 405:107.0 406:95.0 407:133.0 408:112.0 409:151.0 410:159.0 411:216.0 412:228.0 413:0.0 414:0.0 415:0.0 416:0.0 417:0.0 418:0.0 419:0.0 420:0.0 421:0.0 422:0.0 423:0.0 424:0.0 425:0.0 426:0.0 427:0.0 428:0.0 429:0.0 430:0.0 431:0.0 432:0.0 433:0.0 434:0.0 435:0.0 436:0.0 437:0.0 438:0.0 439:0.0 440:0.0 441:0.0 442:0.0 443:0.0 444:0.0 445:0.0 446:0.0 447:0.0 448:0.0 449:0.0 450:0.0 451:0.0 452:0.0 453:0.0 454:0.0 455:0.0 456:0.0 457:0.0 458:0.0 459:0.0 460:0.0 461:0.0 462:0.0 463:0.0 464:0.0 465:0.0 466:0.0 467:0.0 468:0.0 469:0.0 470:0.0 471:0.0 472:0.0 473:0.0 474:0.0 475:0.0 476:0.0 477:0.0 478:0.0 479:0.0 480:0.0 481:0.0 482:0.0 483:0.0 484:0.0 485:0.0 486:0.0 487:0.0 488:0.0 489:0.0 490:0.0 491:0.0 492:0.0 493:0.0 494:0.0 495:0.0 496:0.0 497:0.0 498:0.0 499:0.0 500:0.0 501:0.0 502:0.0 503:0.0 504:0.0 505:0.0 506:0.0 507:0.0 508:0.0 509:0.0 510:0.0 511:0.0 512:0.0 513:0.0 514:0.0 515:0.0 516:0.0 517:0.0 518:0.0 519:0.0 520:0.0 521:0.0 522:0.0 523:0.0 524:0.0 525:0.0 526:0.0 527:0.0 528:0.0 529:0.0 530:0.0 531:0.0 532:0.0 533:0.0 534:0.0 535:0.0 536:0.0 537:0.0 538:0.0 539:0.0 540:0.0 541:0.0 542:0.0 543:0.0 544:0.0 545:0.0 546:0.0 547:0.0 548:0.0 549:0.0 550:0.0 551:0.0 552:0.0 553:0.0 554:0.0 555:0.0 556:0.0 557:0.0 558:0.0 559:0.0 560:0.0 561:0.0 562:0.0 563:0.0 564:0.0 565:0.0 566:0.0 567:0.0 568:0.0 569:0.0 570:0.0 571:0.0 572:0.0 573:0.0 574:0.0 575:0.0 576:0.0 577:0.0 578:0.0 579:0.0 580:0.0 581:0.0 582:0.0 583:0.0 584:0.0 585:0.0 586:0.0 587:0.0 588:0.0 589:0.0 590:0.0 591:0.0 592:0.0 593:0.0 594:0.0 595:0.0 596:0.0 597:0.0 598:0.0 599:0.0 600:0.0 601:0.0 602:0.0 603:0.0 604:0.0 605:0.0 606:0.0 607:0.0 608:0.0 609:0.0 610:0.0 611:0.0 612:0.0 613:0.0 614:0.0 615:0.0 616:0.0 617:0.0 618:0.0 619:0.0 620:0.0 621:0.0 622:0.0 623:0.0 624:0.0 625:0.0 626:0.0 627:0.0 628:0.0 629:0.0 630:0.0 631:0.0 632:0.0 633:0.0 634:0.0 635:0.0 636:0.0 637:0.0 638:0.0 639:0.0 640:0.0 
1.5590524631635443E-18 4.2255801508243786E-18 1:174.0 2:253.0 3:60.0 4:82.0 5:249.0 6:93.0 7:159.0 8:248.0 9:27.0 10:122.0 11:188.0 12:41.0 13:124.0 14:252.0 15:79.0 16:145.0 17:157.0 18:83.0 19:215.0 20:99.0 21:93.0 22:127.0 23:27.0 24:103.0 25:176.0 26:30.0 27:111.0 28:184.0 29:105.0 30:200.0 31:111.0 32:68.0 33:223.0 34:119.0 35:137.0 36:244.0 37:182.0 38:68.0 39:124.0 40:110.0 41:205.0 42:113.0 43:189.0 44:71.0 45:32.0 46:31.0 47:111.0 48:184.0 49:105.0 50:232.0 51:55.0 52:76.0 53:222.0 54:117.0 55:221.0 56:51.0 57:148.0 58:196.0 59:124.0 60:110.0 61:80.0 62:221.0 63:27.0 64:101.0 65:50.0 66:204.0 67:103.0 68:182.0 69:236.0 70:128.0 71:106.0 72:96.0 73:182.0 74:151.0 75:1.0 76:112.0 77:34.0 78:126.0 79:92.0 80:72.0 81:169.0 82:166.0 83:21.0 84:63.0 85:48.0 86:143.0 87:96.0 88:55.0 89:118.0 90:43.0 91:115.0 92:124.0 93:247.0 94:33.0 95:128.0 96:181.0 97:17.0 98:46.0 99:100.0 100:12.0 101:193.0 102:166.0 103:85.0 104:69.0 105:120.0 106:10.0 107:168.0 108:43.0 109:108.0 110:162.0 111:122.0 112:252.0 113:181.0 114:34.0 115:132.0 116:50.0 117:166.0 118:21.0 119:110.0 120:0.0 121:169.0 122:118.0 123:54.0 124:77.0 125:233.0 126:127.0 127:149.0 128:95.0 129:220.0 130:234.0 131:188.0 132:60.0 133:210.0 134:240.0 135:143.0 136:191.0 137:152.0 138:38.0 139:206.0 140:42.0 141:242.0 142:107.0 143:200.0 144:173.0 145:203.0 146:7.0 147:94.0 148:223.0 149:55.0 150:167.0 151:70.0 152:159.0 153:3.0 154:35.0 155:83.0 156:88.0 157:124.0 158:206.0 159:171.0 160:157.0 161:226.0 162:236.0 163:212.0 164:82.0 165:201.0 166:189.0 167:100.0 168:135.0 169:187.0 170:51.0 171:160.0 172:24.0 173:46.0 174:179.0 175:68.0 176:159.0 177:129.0 178:214.0 179:232.0 180:26.0 181:109.0 182:103.0 183:192.0 184:71.0 185:180.0 186:62.0 187:70.0 188:188.0 189:96.0 190:160.0 191:175.0 192:76.0 193:243.0 194:96.0 195:216.0 196:176.0 197:24.0 198:206.0 199:108.0 200:110.0 201:213.0 202:173.0 203:135.0 204:55.0 205:137.0 206:171.0 207:7.0 208:171.0 209:182.0 210:186.0 211:130.0 212:56.0 213:230.0 214:240.0 215:200.0 216:135.0 217:17.0 218:102.0 219:104.0 220:18.0 221:216.0 222:126.0 223:27.0 224:18.0 225:50.0 226:168.0 227:67.0 228:146.0 229:59.0 230:30.0 231:103.0 232:252.0 233:63.0 234:199.0 235:129.0 236:85.0 237:55.0 238:250.0 239:76.0 240:10.0 241:12.0 242:48.0 243:187.0 244:113.0 245:21.0 246:207.0 247:113.0 248:81.0 249:124.0 250:73.0 251:103.0 252:24.0 253:214.0 254:87.0 255:8.0 256:56.0 257:176.0 258:24.0 259:82.0 260:24.0 261:173.0 262:199.0 263:221.0 264:99.0 265:180.0 266:47.0 267:103.0 268:184.0 269:116.0 270:41.0 271:119.0 272:80.0 273:211.0 274:113.0 275:153.0 276:121.0 277:89.0 278:68.0 279:108.0 280:122.0 281:45.0 282:110.0 283:223.0 284:115.0 285:228.0 286:43.0 287:103.0 288:144.0 289:118.0 290:162.0 291:126.0 292:64.0 293:215.0 294:97.0 295:129.0 296:120.0 297:51.0 298:108.0 299:38.0 300:90.0 301:236.0 302:237.0 303:224.0 304:83.0 305:122.0 306:25.0 307:242.0 308:176.0 309:123.0 310:176.0 311:37.0 312:152.0 313:43.0 314:133.0 315:214.0 316:183.0 317:39.0 318:76.0 319:228.0 320:94.0 321:200.0 322:111.0 323:223.0 324:247.0 325:224.0 326:138.0 327:102.0 328:181.0 329:52.0 330:130.0 331:106.0 332:88.0 333:247.0 334:227.0 335:9.0 336:25.0 337:50.0 338:238.0 339:98.0 340:74.0 341:224.0 342:229.0 343:61.0 344:119.0 345:13.0 346:205.0 347:71.0 348:165.0 349:99.0 350:55.0 351:165.0 352:24.0 353:242.0 354:49.0 355:72.0 356:51.0 357:137.0 358:66.0 359:104.0 360:74.0 361:50.0 362:249.0 363:59.0 364:250.0 365:93.0 366:197.0 367:242.0 368:192.0 369:135.0 370:8.0 371:201.0 372:66.0 373:48.0 374:223.0 375:33.0 376:96.0 377:216.0 378:56.0 379:19.0 380:194.0 381:212.0 382:173.0 383:150.0 384:62.0 385:136.0 386:43.0 387:6.0 388:239.0 389:252.0 390:179.0 391:169.0 392:24.0 393:199.0 394:226.0 395:0.0 396:11.0 397:137.0 398:71.0 399:104.0 400:34.0 401:120.0 402:111.0 403:139.0 404:47.0 405:184.0 406:162.0 407:87.0 408:60.0 409:72.0 410:121.0 411:171.0 412:0.0 413:0.0 414:0.0 415:0.0 416:0.0 417:0.0 418:0.0 419:0.0 420:0.0 421:0.0 422:0.0 423:0.0 424:0.0 425:0.0 426:0.0 427:0.0 428:0.0 429:0.0 430:0.0 431:0.0 432:0.0 433:0.0 434:0.0 435:0.0 436:0.0 437:0.0 438:0.0 439:0.0 440:0.0 441:0.0 442:0.0 443:0.0 444:0.0 445:0.0 446:0.0 447:0.0 448:0.0 449:0.0 450:0.0 451:0.0 452:0.0 453:0.0 454:0.0 455:0.0 456:0.0 457:0.0 458:0.0 459:0.0 460:0.0 461:0.0 462:0.0 463:0.0 464:0.0 465:0.0 466:0.0 467:0.0 468:0.0 469:0.0 470:0.0 471:0.0 472:0.0 473:0.0 474:0.0 475:0.0 476:0.0 477:0.0 478:0.0 479:0.0 480:0.0 481:0.0 482:0.0 483:0.0 484:0.0 485:0.0 486:0.0 487:0.0 488:0.0 489:0.0 490:0.0 491:0.0 492:0.0 493:0.0 494:0.0 495:0.0 496:0.0 497:0.0 498:0.0 499:0.0 500:0.0 501:0.0 502:0.0 503:0.0 504:0.0 505:0.0 506:0.0 507:0.0 508:0.0 509:0.0 510:0.0 511:0.0 512:0.0 513:0.0 514:0.0 515:0.0 516:0.0 517:0.0 518:0.0 519:0.0 520:0.0 521:0.0 522:0.0 523:0.0 524:0.0 525:0.0 526:0.0 527:0.0 528:0.0 529:0.0 530:0.0 531:0.0 532:0.0 533:0.0 534:0.0 535:0.0 536:0.0 537:0.0 538:0.0 539:0.0 540:0.0 541:0.0 542:0.0 543:0.0 544:0.0 545:0.0 546:0.0 547:0.0 548:0.0 549:0.0 550:0.0 551:0.0 552:0.0 553:0.0 554:0.0 555:0.0 556:0.0 557:0.0 558:0.0 559:0.0 560:0.0 561:0.0 562:0.0 563:0.0 564:0.0 565:0.0 566:0.0 567:0.0 568:0.0 569:0.0 570:0.0 571:0.0 572:0.0 573:0.0 574:0.0 575:0.0 576:0.0 577:0.0 578:0.0 579:0.0 580:0.0 581:0.0 582:0.0 583:0.0 584:0.0 585:0.0 586:0.0 587:0.0 588:0.0 589:0.0 590:0.0 591:0.0 592:0.0 593:0.0 594:0.0 595:0.0 596:0.0 597:0.0 598:0.0 599:0.0 600:0.0 601:0.0 602:0.0 603:0.0 604:0.0 605:0.0 606:0.0 607:0.0 608:0.0 609:0.0 610:0.0 611:0.0 612:0.0 613:0.0 614:0.0 615:0.0 616:0.0 617:0.0 618:0.0 619:0.0 620:0.0 621:0.0 622:0.0 623:0.0 624:0.0 625:0.0 626:0.0 627:0.0 628:0.0 629:0.0 630:0.0 631:0.0 632:0.0 633:0.0 634:0.0 635:0.0 636:0.0 637:0.0 638:0.0 639:0.0 640:0.0 
1.6799235250469596E-18 1.3894478750934365E-18 1:71.0 2:186.0 3:126.0 4:243.0 5:238.0 6:182.0 7:255.0 8:242.0 9:239.0 10:222.0 11:255.0 12:166.0 13:217.0 14:238.0 15:246.0 16:98.0 17:239.0 18:255.0 19:127.0 20:207.0 21:77.0 22:44.0 23:156.0 24:215.0 25:168.0 26:62.0 27:68.0 28:154.0 29:115.0 30:186.0 31:174.0 32:84.0 33:207.0 34:115.0 35:203.0 36:255.0 37:17.0 38:198.0 39:108.0 40:46.0 41:59.0 42:145.0 43:247.0 44:237.0 45:189.0 46:95.0 47:255.0 48:249.0 49:63.0 50:124.0 51:247.0 52:47.0 53:78.0 54:188.0 55:55.0 56:228.0 57:254.0 58:157.0 59:255.0 60:231.0 61:25.0 62:181.0 63:254.0 64:121.0 65:159.0 66:235.0 67:176.0 68:78.0 69:126.0 70:65.0 71:248.0 72:2.0 73:122.0 74:248.0 75:14.0 76:32.0 77:251.0 78:27.0 79:90.0 80:17.0 81:36.0 82:233.0 83:43.0 84:218.0 85:204.0 86:197.0 87:181.0 88:206.0 89:142.0 90:20.0 91:192.0 92:10.0 93:176.0 94:220.0 95:117.0 96:8.0 97:201.0 98:123.0 99:19.0 100:83.0 101:66.0 102:203.0 103:166.0 104:154.0 105:237.0 106:212.0 107:188.0 108:133.0 109:143.0 110:21.0 111:146.0 112:1.0 113:172.0 114:158.0 115:126.0 116:206.0 117:196.0 118:51.0 119:251.0 120:81.0 121:230.0 122:143.0 123:5.0 124:219.0 125:253.0 126:255.0 127:76.0 128:174.0 129:159.0 130:191.0 131:138.0 132:88.0 133:226.0 134:227.0 135:164.0 136:199.0 137:201.0 138:242.0 139:234.0 140:24.0 141:143.0 142:44.0 143:244.0 144:241.0 145:237.0 146:63.0 147:125.0 148:83.0 149:175.0 150:190.0 151:254.0 152:214.0 153:207.0 154:239.0 155:215.0 156:255.0 157:239.0 158:253.0 159:255.0 160:157.0 161:47.0 162:61.0 163:109.0 164:225.0 165:189.0 166:255.0 167:90.0 168:146.0 169:207.0 170:249.0 171:158.0 172:255.0 173:159.0 174:61.0 175:151.0 176:165.0 177:207.0 178:243.0 179:223.0 180:125.0 181:10.0 182:157.0 183:8.0 184:136.0 185:223.0 186:177.0 187:154.0 188:75.0 189:158.0 190:5.0 191:92.0 192:183.0 193:172.0 194:238.0 195:42.0 196:64.0 197:103.0 198:11.0 199:147.0 200:149.0 201:0.0 202:248.0 203:187.0 204:177.0 205:228.0 206:205.0 207:181.0 208:71.0 209:158.0 210:207.0 211:64.0 212:19.0 213:180.0 214:156.0 215:96.0 216:8.0 217:160.0 218:59.0 219:51.0 220:17.0 221:75.0 222:128.0 223:244.0 224:244.0 225:116.0 226:156.0 227:248.0 228:139.0 229:219.0 230:217.0 231:54.0 232:163.0 233:111.0 234:253.0 235:214.0 236:110.0 237:183.0 238:213.0 239:181.0 240:29.0 241:6.0 242:203.0 243:110.0 244:138.0 245:214.0 246:131.0 247:186.0 248:193.0 249:143.0 250:89.0 251:29.0 252:227.0 253:12.0 254:141.0 255:113.0 256:4.0 257:111.0 258:49.0 259:151.0 260:149.0 261:213.0 262:68.0 263:111.0 264:239.0 265:6.0 266:98.0 267:75.0 268:96.0 269:212.0 270:130.0 271:195.0 272:146.0 273:83.0 274:67.0 275:57.0 276:107.0 277:122.0 278:229.0 279:57.0 280:171.0 281:154.0 282:79.0 283:102.0 284:190.0 285:7.0 286:146.0 287:206.0 288:116.0 289:133.0 290:4.0 291:214.0 292:167.0 293:105.0 294:207.0 295:179.0 296:197.0 297:108.0 298:225.0 299:151.0 300:239.0 301:54.0 302:132.0 303:233.0 304:218.0 305:220.0 306:1.0 307:206.0 308:232.0 309:82.0 310:179.0 311:241.0 312:10.0 313:113.0 314:104.0 315:125.0 316:9.0 317:89.0 318:202.0 319:19.0 320:251.0 321:10.0 322:86.0 323:55.0 324:168.0 325:101.0 326:103.0 327:184.0 328:75.0 329:84.0 330:3.0 331:89.0 332:83.0 333:12.0 334:189.0 335:52.0 336:136.0 337:253.0 338:57.0 339:147.0 340:161.0 341:158.0 342:253.0 343:50.0 344:250.0 345:203.0 346:245.0 347:158.0 348:198.0 349:153.0 350:78.0 351:156.0 352:27.0 353:44.0 354:255.0 355:111.0 356:40.0 357:167.0 358:123.0 359:147.0 360:211.0 361:38.0 362:164.0 363:209.0 364:176.0 365:252.0 366:8.0 367:204.0 368:235.0 369:139.0 370:178.0 371:144.0 372:202.0 373:188.0 374:107.0 375:93.0 376:2.0 377:207.0 378:19.0 379:31.0 380:181.0 381:146.0 382:93.0 383:47.0 384:189.0 385:6.0 386:134.0 387:175.0 388:118.0 389:164.0 390:194.0 391:210.0 392:231.0 393:245.0 394:247.0 395:49.0 396:75.0 397:102.0 398:119.0 399:63.0 400:231.0 401:225.0 402:205.0 403:16.0 404:108.0 405:224.0 406:162.0 407:238.0 408:128.0 409:45.0 410:113.0 411:33.0 412:185.0 413:0.0 414:0.0 415:0.0 416:0.0 417:0.0 418:0.0 419:0.0 420:0.0 421:0.0 422:0.0 423:0.0 424:0.0 425:0.0 426:0.0 427:0.0 428:0.0 429:0.0 430:0.0 431:0.0 432:0.0 433:0.0 434:0.0 435:0.0 436:0.0 437:0.0 438:0.0 439:0.0 440:0.0 441:0.0 442:0.0 443:0.0 444:0.0 445:0.0 446:0.0 447:0.0 448:0.0 449:0.0 450:0.0 451:0.0 452:0.0 453:0.0 454:0.0 455:0.0 456:0.0 457:0.0 458:0.0 459:0.0 460:0.0 461:0.0 462:0.0 463:0.0 464:0.0 465:0.0 466:0.0 467:0.0 468:0.0 469:0.0 470:0.0 471:0.0 472:0.0 473:0.0 474:0.0 475:0.0 476:0.0 477:0.0 478:0.0 479:0.0 480:0.0 481:0.0 482:0.0 483:0.0 484:0.0 485:0.0 486:0.0 487:0.0 488:0.0 489:0.0 490:0.0 491:0.0 492:0.0 493:0.0 494:0.0 495:0.0 496:0.0 497:0.0 498:0.0 499:0.0 500:0.0 501:0.0 502:0.0 503:0.0 504:0.0 505:0.0 506:0.0 507:0.0 508:0.0 509:0.0 510:0.0 511:0.0 512:0.0 513:0.0 514:0.0 515:0.0 516:0.0 517:0.0 518:0.0 519:0.0 520:0.0 521:0.0 522:0.0 523:0.0 524:0.0 525:0.0 526:0.0 527:0.0 528:0.0 529:0.0 530:0.0 531:0.0 532:0.0 533:0.0 534:0.0 535:0.0 536:0.0 537:0.0 538:0.0 539:0.0 540:0.0 541:0.0 542:0.0 543:0.0 544:0.0 545:0.0 546:0.0 547:0.0 548:0.0 549:0.0 550:0.0 551:0.0 552:0.0 553:0.0 554:0.0 555:0.0 556:0.0 557:0.0 558:0.0 559:0.0 560:0.0 561:0.0 562:0.0 563:0.0 564:0.0 565:0.0 566:0.0 567:0.0 568:0.0 569:0.0 570:0.0 571:0.0 572:0.0 573:0.0 574:0.0 575:0.0 576:0.0 577:0.0 578:0.0 579:0.0 580:0.0 581:0.0 582:0.0 583:0.0 584:0.0 585:0.0 586:0.0 587:0.0 588:0.0 589:0.0 590:0.0 591:0.0 592:0.0 593:0.0 594:0.0 595:0.0 596:0.0 597:0.0 598:0.0 599:0.0 600:0.0 601:0.0 602:0.0 603:0.0 604:0.0 605:0.0 606:0.0 607:0.0 608:0.0 609:0.0 610:0.0 611:0.0 612:0.0 613:0.0 614:0.0 615:0.0 616:0.0 617:0.0 618:0.0 619:0.0 620:0.0 621:0.0 622:0.0 623:0.0 624:0.0 625:0.0 626:0.0 627:0.0 628:0.0 629:0.0 630:0.0 631:0.0 632:0.0 633:0.0 634:0.0 635:0.0 636:0.0 637:0.0 638:0.0 639:0.0 640:0.0 
1.288663970075325E-18 2.1007405293194814E-18 1:108.0 2:108.0 3:183.0 4:87.0 5:205.0 6:255.0 7:229.0 8:134.0 9:219.0 10:183.0 11:46.0 12:8.0 13:98.0 14:177.0 15:85.0 16:175.0 17:137.0 18:118.0 19:104.0 20:8.0 21:201.0 22:247.0 23:175.0 24:86.0 25:249.0 26:95.0 27:55.0 28:253.0 29:242.0 30:220.0 31:118.0 32:236.0 33:121.0 34:245.0 35:138.0 36:183.0 37:21.0 38:94.0 39:228.0 40:110.0 41:40.0 42:164.0 43:92.0 44:104.0 45:233.0 46:91.0 47:81.0 48:175.0 49:11.0 50:57.0 51:188.0 52:56.0 53:31.0 54:51.0 55:66.0 56:179.0 57:139.0 58:19.0 59:228.0 60:48.0 61:89.0 62:68.0 63:156.0 64:190.0 65:45.0 66:52.0 67:70.0 68:172.0 69:196.0 70:90.0 71:139.0 72:5.0 73:247.0 74:114.0 75:43.0 76:203.0 77:209.0 78:195.0 79:108.0 80:79.0 81:110.0 82:238.0 83:132.0 84:182.0 85:141.0 86:4.0 87:79.0 88:190.0 89:131.0 90:190.0 91:138.0 92:141.0 93:201.0 94:233.0 95:83.0 96:79.0 97:205.0 98:231.0 99:249.0 100:223.0 101:238.0 102:171.0 103:225.0 104:132.0 105:200.0 106:0.0 107:79.0 108:152.0 109:131.0 110:190.0 111:132.0 112:205.0 113:73.0 114:231.0 115:67.0 116:223.0 117:77.0 118:212.0 119:237.0 120:214.0 121:216.0 122:156.0 123:158.0 124:254.0 125:171.0 126:104.0 127:21.0 128:167.0 129:190.0 130:31.0 131:166.0 132:48.0 133:255.0 134:247.0 135:104.0 136:91.0 137:167.0 138:119.0 139:237.0 140:0.0 141:129.0 142:169.0 143:70.0 144:17.0 145:132.0 146:139.0 147:224.0 148:1.0 149:118.0 150:32.0 151:66.0 152:82.0 153:211.0 154:8.0 155:16.0 156:224.0 157:120.0 158:44.0 159:34.0 160:93.0 161:42.0 162:221.0 163:34.0 164:172.0 165:85.0 166:199.0 167:190.0 168:231.0 169:133.0 170:68.0 171:216.0 172:135.0 173:41.0 174:140.0 175:54.0 176:64.0 177:204.0 178:43.0 179:147.0 180:197.0 181:172.0 182:191.0 183:158.0 184:63.0 185:178.0 186:175.0 187:55.0 188:191.0 189:30.0 190:127.0 191:78.0 192:253.0 193:247.0 194:229.0 195:139.0 196:25.0 197:151.0 198:90.0 199:255.0 200:7.0 201:207.0 202:254.0 203:178.0 204:18.0 205:186.0 206:188.0 207:191.0 208:183.0 209:186.0 210:219.0 211:78.0 212:244.0 213:252.0 214:246.0 215:223.0 216:253.0 217:183.0 218:123.0 219:249.0 220:151.0 221:166.0 222:97.0 223:172.0 224:82.0 225:205.0 226:93.0 227:214.0 228:200.0 229:203.0 230:246.0 231:165.0 232:11.0 233:66.0 234:216.0 235:127.0 236:43.0 237:201.0 238:192.0 239:115.0 240:119.0 241:53.0 242:170.0 243:174.0 244:169.0 245:132.0 246:15.0 247:203.0 248:223.0 249:22.0 250:245.0 251:207.0 252:23.0 253:211.0 254:169.0 255:18.0 256:8.0 257:217.0 258:78.0 259:115.0 260:29.0 261:199.0 262:190.0 263:133.0 264:19.0 265:170.0 266:140.0 267:173.0 268:182.0 269:170.0 270:123.0 271:18.0 272:245.0 273:164.0 274:166.0 275:196.0 276:127.0 277:135.0 278:103.0 279:124.0 280:85.0 281:45.0 282:230.0 283:5.0 284:103.0 285:148.0 286:14.0 287:102.0 288:184.0 289:116.0 290:170.0 291:107.0 292:72.0 293:211.0 294:97.0 295:153.0 296:178.0 297:25.0 298:68.0 299:108.0 300:110.0 301:212.0 302:5.0 303:159.0 304:31.0 305:138.0 306:162.0 307:38.0 308:143.0 309:188.0 310:135.0 311:235.0 312:144.0 313:229.0 314:226.0 315:8.0 316:218.0 317:115.0 318:247.0 319:106.0 320:146.0 321:201.0 322:182.0 323:27.0 324:16.0 325:184.0 326:189.0 327:17.0 328:183.0 329:62.0 330:111.0 331:175.0 332:253.0 333:150.0 334:150.0 335:202.0 336:176.0 337:151.0 338:22.0 339:234.0 340:20.0 341:212.0 342:254.0 343:16.0 344:59.0 345:170.0 346:232.0 347:39.0 348:206.0 349:62.0 350:31.0 351:168.0 352:52.0 353:142.0 354:243.0 355:75.0 356:157.0 357:179.0 358:74.0 359:206.0 360:18.0 361:16.0 362:44.0 363:123.0 364:114.0 365:66.0 366:248.0 367:66.0 368:66.0 369:225.0 370:2.0 371:171.0 372:40.0 373:51.0 374:23.0 375:133.0 376:184.0 377:171.0 378:179.0 379:204.0 380:2.0 381:59.0 382:221.0 383:99.0 384:222.0 385:214.0 386:211.0 387:239.0 388:245.0 389:213.0 390:72.0 391:254.0 392:230.0 393:121.0 394:239.0 395:180.0 396:100.0 397:126.0 398:250.0 399:23.0 400:234.0 401:201.0 402:187.0 403:62.0 404:255.0 405:114.0 406:45.0 407:167.0 408:136.0 409:63.0 410:186.0 411:244.0 412:249.0 413:0.0 414:0.0 415:0.0 416:0.0 417:0.0 418:0.0 419:0.0 420:0.0 421:0.0 422:0.0 423:0.0 424:0.0 425:0.0 426:0.0 427:0.0 428:0.0 429:0.0 430:0.0 431:0.0 432:0.0 433:0.0 434:0.0 435:0.0 436:0.0 437:0.0 438:0.0 439:0.0 440:0.0 441:0.0 442:0.0 443:0.0 444:0.0 445:0.0 446:0.0 447:0.0 448:0.0 449:0.0 450:0.0 451:0.0 452:0.0 453:0.0 454:0.0 455:0.0 456:0.0 457:0.0 458:0.0 459:0.0 460:0.0 461:0.0 462:0.0 463:0.0 464:0.0 465:0.0 466:0.0 467:0.0 468:0.0 469:0.0 470:0.0 471:0.0 472:0.0 473:0.0 474:0.0 475:0.0 476:0.0 477:0.0 478:0.0 479:0.0 480:0.0 481:0.0 482:0.0 483:0.0 484:0.0 485:0.0 486:0.0 487:0.0 488:0.0 489:0.0 490:0.0 491:0.0 492:0.0 493:0.0 494:0.0 495:0.0 496:0.0 497:0.0 498:0.0 499:0.0 500:0.0 501:0.0 502:0.0 503:0.0 504:0.0 505:0.0 506:0.0 507:0.0 508:0.0 509:0.0 510:0.0 511:0.0 512:0.0 513:0.0 514:0.0 515:0.0 516:0.0 517:0.0 518:0.0 519:0.0 520:0.0 521:0.0 522:0.0 523:0.0 524:0.0 525:0.0 526:0.0 527:0.0 528:0.0 529:0.0 530:0.0 531:0.0 532:0.0 533:0.0 534:0.0 535:0.0 536:0.0 537:0.0 538:0.0 539:0.0 540:0.0 541:0.0 542:0.0 543:0.0 544:0.0 545:0.0 546:0.0 547:0.0 548:0.0 549:0.0 550:0.0 551:0.0 552:0.0 553:0.0 554:0.0 555:0.0 556:0.0 557:0.0 558:0.0 559:0.0 560:0.0 561:0.0 562:0.0 563:0.0 564:0.0 565:0.0 566:0.0 567:0.0 568:0.0 569:0.0 570:0.0 571:0.0 572:0.0 573:0.0 574:0.0 575:0.0 576:0.0 577:0.0 578:0.0 579:0.0 580:0.0 581:0.0 582:0.0 583:0.0 584:0.0 585:0.0 586:0.0 587:0.0 588:0.0 589:0.0 590:0.0 591:0.0 592:0.0 593:0.0 594:0.0 595:0.0 596:0.0 597:0.0 598:0.0 599:0.0 600:0.0 601:0.0 602:0.0 603:0.0 604:0.0 605:0.0 606:0.0 607:0.0 608:0.0 609:0.0 610:0.0 611:0.0 612:0.0 613:0.0 614:0.0 615:0.0 616:0.0 617:0.0 618:0.0 619:0.0 620:0.0 621:0.0 622:0.0 623:0.0 624:0.0 625:0.0 626:0.0 627:0.0 628:0.0 629:0.0 630:0.0 631:0.0 632:0.0 633:0.0 634:0.0 635:0.0 636:0.0 637:0.0 638:0.0 639:0.0 640:0.0 
9.195475831152581E-19 2.075068622162112E-18 1:215.0 2:175.0 3:141.0 4:31.0 5:186.0 6:50.0 7:46.0 8:190.0 9:50.0 10:250.0 11:235.0 12:245.0 13:225.0 14:102.0 15:139.0 16:219.0 17:55.0 18:231.0 19:236.0 20:230.0 21:35.0 22:185.0 23:245.0 24:95.0 25:104.0 26:217.0 27:132.0 28:109.0 29:239.0 30:251.0 31:177.0 32:104.0 33:162.0 34:244.0 35:196.0 36:190.0 37:203.0 38:102.0 39:238.0 40:0.0 41:252.0 42:118.0 43:156.0 44:54.0 45:137.0 46:44.0 47:84.0 48:154.0 49:178.0 50:242.0 51:163.0 52:93.0 53:199.0 54:99.0 55:75.0 56:27.0 57:149.0 58:199.0 59:236.0 60:54.0 61:5.0 62:116.0 63:148.0 64:19.0 65:169.0 66:109.0 67:162.0 68:136.0 69:254.0 70:251.0 71:43.0 72:124.0 73:214.0 74:240.0 75:73.0 76:46.0 77:145.0 78:68.0 79:104.0 80:18.0 81:45.0 82:247.0 83:65.0 84:69.0 85:210.0 86:43.0 87:102.0 88:249.0 89:119.0 90:224.0 91:123.0 92:238.0 93:195.0 94:97.0 95:156.0 96:148.0 97:123.0 98:206.0 99:70.0 100:42.0 101:215.0 102:245.0 103:148.0 104:22.0 105:155.0 106:44.0 107:22.0 108:172.0 109:171.0 110:186.0 111:171.0 112:93.0 113:206.0 114:98.0 115:79.0 116:83.0 117:151.0 118:199.0 119:236.0 120:102.0 121:41.0 122:103.0 123:97.0 124:71.0 125:80.0 126:11.0 127:111.0 128:252.0 129:113.0 130:160.0 131:126.0 132:204.0 133:83.0 134:33.0 135:149.0 136:180.0 137:120.0 138:236.0 139:70.0 140:238.0 141:212.0 142:230.0 143:156.0 144:37.0 145:168.0 146:46.0 147:71.0 148:184.0 149:114.0 150:190.0 151:167.0 152:93.0 153:215.0 154:99.0 155:75.0 156:27.0 157:21.0 158:196.0 159:108.0 160:106.0 161:236.0 162:168.0 163:158.0 164:118.0 165:122.0 166:205.0 167:115.0 168:252.0 169:187.0 170:189.0 171:230.0 172:24.0 173:126.0 174:247.0 175:72.0 176:18.0 177:51.0 178:255.0 179:239.0 180:80.0 181:213.0 182:151.0 183:69.0 184:14.0 185:26.0 186:38.0 187:79.0 188:184.0 189:32.0 190:192.0 191:203.0 192:196.0 193:81.0 194:102.0 195:152.0 196:118.0 197:116.0 198:196.0 199:120.0 200:238.0 201:2.0 202:174.0 203:158.0 204:187.0 205:233.0 206:225.0 207:48.0 208:79.0 209:158.0 210:31.0 211:72.0 212:49.0 213:172.0 214:243.0 215:96.0 216:200.0 217:193.0 218:59.0 219:171.0 220:17.0 221:23.0 222:207.0 223:67.0 224:70.0 225:210.0 226:142.0 227:111.0 228:240.0 229:53.0 230:164.0 231:238.0 232:196.0 233:73.0 234:227.0 235:165.0 236:84.0 237:124.0 238:238.0 239:70.0 240:238.0 241:129.0 242:41.0 243:135.0 244:31.0 245:120.0 246:171.0 247:106.0 248:68.0 249:126.0 250:160.0 251:234.0 252:192.0 253:245.0 254:226.0 255:145.0 256:112.0 257:250.0 258:239.0 259:106.0 260:221.0 261:188.0 262:222.0 263:226.0 264:85.0 265:193.0 266:111.0 267:103.0 268:255.0 269:117.0 270:111.0 271:254.0 272:61.0 273:19.0 274:37.0 275:2.0 276:29.0 277:89.0 278:222.0 279:167.0 280:138.0 281:105.0 282:252.0 283:253.0 284:87.0 285:105.0 286:93.0 287:85.0 288:53.0 289:233.0 290:254.0 291:188.0 292:12.0 293:254.0 294:119.0 295:134.0 296:183.0 297:132.0 298:242.0 299:212.0 300:8.0 301:57.0 302:133.0 303:122.0 304:45.0 305:84.0 306:47.0 307:231.0 308:248.0 309:86.0 310:6.0 311:254.0 312:7.0 313:115.0 314:233.0 315:59.0 316:64.0 317:120.0 318:206.0 319:6.0 320:238.0 321:195.0 322:191.0 323:30.0 324:188.0 325:186.0 326:172.0 327:49.0 328:103.0 329:190.0 330:255.0 331:134.0 332:29.0 333:188.0 334:182.0 335:66.0 336:83.0 337:167.0 338:127.0 339:234.0 340:5.0 341:37.0 342:60.0 343:247.0 344:79.0 345:234.0 346:123.0 347:247.0 348:218.0 349:105.0 350:98.0 351:124.0 352:104.0 353:222.0 354:188.0 355:133.0 356:62.0 357:175.0 358:127.0 359:118.0 360:8.0 361:214.0 362:231.0 363:134.0 364:30.0 365:153.0 366:194.0 367:22.0 368:237.0 369:183.0 370:182.0 371:138.0 372:137.0 373:230.0 374:226.0 375:11.0 376:87.0 377:145.0 378:109.0 379:232.0 380:162.0 381:109.0 382:252.0 383:253.0 384:87.0 385:233.0 386:93.0 387:85.0 388:177.0 389:123.0 390:254.0 391:52.0 392:12.0 393:250.0 394:61.0 395:214.0 396:183.0 397:141.0 398:214.0 399:212.0 400:10.0 401:237.0 402:122.0 403:251.0 404:108.0 405:111.0 406:219.0 407:117.0 408:51.0 409:74.0 410:246.0 411:206.0 412:255.0 413:0.0 414:0.0 415:0.0 416:0.0 417:0.0 418:0.0 419:0.0 420:0.0 421:0.0 422:0.0 423:0.0 424:0.0 425:0.0 426:0.0 427:0.0 428:0.0 429:0.0 430:0.0 431:0.0 432:0.0 433:0.0 434:0.0 435:0.0 436:0.0 437:0.0 438:0.0 439:0.0 440:0.0 441:0.0 442:0.0 443:0.0 444:0.0 445:0.0 446:0.0 447:0.0 448:0.0 449:0.0 450:0.0 451:0.0 452:0.0 453:0.0 454:0.0 455:0.0 456:0.0 457:0.0 458:0.0 459:0.0 460:0.0 461:0.0 462:0.0 463:0.0 464:0.0 465:0.0 466:0.0 467:0.0 468:0.0 469:0.0 470:0.0 471:0.0 472:0.0 473:0.0 474:0.0 475:0.0 476:0.0 477:0.0 478:0.0 479:0.0 480:0.0 481:0.0 482:0.0 483:0.0 484:0.0 485:0.0 486:0.0 487:0.0 488:0.0 489:0.0 490:0.0 491:0.0 492:0.0 493:0.0 494:0.0 495:0.0 496:0.0 497:0.0 498:0.0 499:0.0 500:0.0 501:0.0 502:0.0 503:0.0 504:0.0 505:0.0 506:0.0 507:0.0 508:0.0 509:0.0 510:0.0 511:0.0 512:0.0 513:0.0 514:0.0 515:0.0 516:0.0 517:0.0 518:0.0 519:0.0 520:0.0 521:0.0 522:0.0 523:0.0 524:0.0 525:0.0 526:0.0 527:0.0 528:0.0 529:0.0 530:0.0 531:0.0 532:0.0 533:0.0 534:0.0 535:0.0 536:0.0 537:0.0 538:0.0 539:0.0 540:0.0 541:0.0 542:0.0 543:0.0 544:0.0 545:0.0 546:0.0 547:0.0 548:0.0 549:0.0 550:0.0 551:0.0 552:0.0 553:0.0 554:0.0 555:0.0 556:0.0 557:0.0 558:0.0 559:0.0 560:0.0 561:0.0 562:0.0 563:0.0 564:0.0 565:0.0 566:0.0 567:0.0 568:0.0 569:0.0 570:0.0 571:0.0 572:0.0 573:0.0 574:0.0 575:0.0 576:0.0 577:0.0 578:0.0 579:0.0 580:0.0 581:0.0 582:0.0 583:0.0 584:0.0 585:0.0 586:0.0 587:0.0 588:0.0 589:0.0 590:0.0 591:0.0 592:0.0 593:0.0 594:0.0 595:0.0 596:0.0 597:0.0 598:0.0 599:0.0 600:0.0 601:0.0 602:0.0 603:0.0 604:0.0 605:0.0 606:0.0 607:0.0 608:0.0 609:0.0 610:0.0 611:0.0 612:0.0 613:0.0 614:0.0 615:0.0 616:0.0 617:0.0 618:0.0 619:0.0 620:0.0 621:0.0 622:0.0 623:0.0 624:0.0 625:0.0 626:0.0 627:0.0 628:0.0 629:0.0 630:0.0 631:0.0 632:0.0 633:0.0 634:0.0 635:0.0 636:0.0 637:0.0 638:0.0 639:0.0 640:0.0 
2.5348806600103976E-18 9.233686683405177E-19 1:34.0 2:82.0 3:71.0 4:220.0 5:100.0 6:134.0 7:77.0 8:118.0 9:21.0 10:2.0 11:80.0 12:230.0 13:48.0 14:13.0 15:180.0 16:68.0 17:92.0 18:248.0 19:51.0 20:201.0 21:182.0 22:199.0 23:197.0 24:150.0 25:252.0 26:115.0 27:135.0 28:236.0 29:22.0 30:182.0 31:157.0 32:186.0 33:64.0 34:104.0 35:254.0 36:96.0 37:89.0 38:206.0 39:147.0 40:243.0 41:34.0 42:195.0 43:108.0 44:137.0 45:212.0 46:130.0 47:237.0 48:125.0 49:5.0 50:69.0 51:86.0 52:199.0 53:65.0 54:13.0 55:62.0 56:65.0 57:126.0 58:128.0 59:55.0 60:173.0 61:2.0 62:128.0 63:1.0 64:202.0 65:93.0 66:193.0 67:233.0 68:102.0 69:4.0 70:0.0 71:88.0 72:2.0 73:32.0 74:15.0 75:56.0 76:64.0 77:104.0 78:18.0 79:19.0 80:193.0 81:147.0 82:132.0 83:41.0 84:136.0 85:38.0 86:225.0 87:139.0 88:98.0 89:28.0 90:72.0 91:208.0 92:179.0 93:149.0 94:14.0 95:182.0 96:224.0 97:222.0 98:161.0 99:151.0 100:133.0 101:42.0 102:128.0 103:33.0 104:168.0 105:13.0 106:193.0 107:153.0 108:106.0 109:20.0 110:68.0 111:208.0 112:131.0 113:32.0 114:13.0 115:50.0 116:64.0 117:200.0 118:0.0 119:51.0 120:133.0 121:3.0 122:149.0 123:10.0 124:136.0 125:148.0 126:164.0 127:184.0 128:103.0 129:28.0 130:1.0 131:80.0 132:83.0 133:52.0 134:26.0 135:60.0 136:64.0 137:220.0 138:3.0 139:19.0 140:133.0 141:35.0 142:201.0 143:106.0 144:200.0 145:86.0 146:145.0 147:235.0 148:116.0 149:29.0 150:68.0 151:92.0 152:135.0 153:41.0 154:207.0 155:182.0 156:68.0 157:126.0 158:169.0 159:23.0 160:205.0 161:59.0 162:91.0 163:106.0 164:140.0 165:86.0 166:209.0 167:186.0 168:116.0 169:141.0 170:64.0 171:92.0 172:231.0 173:41.0 174:142.0 175:182.0 176:228.0 177:110.0 178:187.0 179:151.0 180:197.0 181:43.0 182:19.0 183:98.0 184:136.0 185:118.0 186:151.0 187:185.0 188:81.0 189:13.0 190:76.0 191:84.0 192:231.0 193:40.0 194:140.0 195:182.0 196:36.0 197:126.0 198:169.0 199:151.0 200:173.0 201:26.0 202:217.0 203:99.0 204:140.0 205:119.0 206:211.0 207:190.0 208:103.0 209:157.0 210:64.0 211:216.0 212:231.0 213:41.0 214:142.0 215:180.0 216:196.0 217:110.0 218:187.0 219:151.0 220:197.0 221:11.0 222:90.0 223:98.0 224:152.0 225:119.0 226:144.0 227:184.0 228:87.0 229:157.0 230:77.0 231:84.0 232:231.0 233:44.0 234:142.0 235:182.0 236:196.0 237:110.0 238:57.0 239:151.0 240:133.0 241:58.0 242:217.0 243:98.0 244:204.0 245:87.0 246:147.0 247:255.0 248:247.0 249:85.0 250:4.0 251:124.0 252:166.0 253:41.0 254:141.0 255:182.0 256:228.0 257:126.0 258:186.0 259:151.0 260:205.0 261:43.0 262:144.0 263:66.0 264:185.0 265:69.0 266:149.0 267:184.0 268:98.0 269:21.0 270:64.0 271:80.0 272:199.0 273:40.0 274:138.0 275:62.0 276:192.0 277:220.0 278:9.0 279:179.0 280:133.0 281:22.0 282:140.0 283:99.0 284:192.0 285:118.0 286:193.0 287:90.0 288:65.0 289:5.0 290:64.0 291:209.0 292:163.0 293:8.0 294:78.0 295:166.0 296:96.0 297:110.0 298:145.0 299:151.0 300:163.0 301:11.0 302:222.0 303:34.0 304:138.0 305:23.0 306:145.0 307:146.0 308:214.0 309:29.0 310:70.0 311:88.0 312:231.0 313:172.0 314:220.0 315:51.0 316:196.0 317:127.0 318:8.0 319:147.0 320:23.0 321:100.0 322:132.0 323:232.0 324:204.0 325:76.0 326:7.0 327:207.0 328:250.0 329:18.0 330:38.0 331:188.0 332:130.0 333:83.0 334:109.0 335:49.0 336:65.0 337:93.0 338:212.0 339:7.0 340:44.0 341:155.0 342:255.0 343:255.0 344:255.0 345:255.0 346:221.0 347:255.0 348:255.0 349:255.0 350:125.0 351:252.0 352:247.0 353:255.0 354:255.0 355:254.0 356:244.0 357:255.0 358:223.0 359:255.0 360:133.0 361:171.0 362:190.0 363:247.0 364:223.0 365:253.0 366:223.0 367:251.0 368:254.0 369:127.0 370:239.0 371:246.0 372:255.0 373:249.0 374:255.0 375:158.0 376:244.0 377:255.0 378:255.0 379:255.0 380:157.0 381:79.0 382:246.0 383:246.0 384:239.0 385:253.0 386:95.0 387:255.0 388:248.0 389:63.0 390:236.0 391:255.0 392:239.0 393:221.0 394:255.0 395:158.0 396:230.0 397:255.0 398:221.0 399:255.0 400:239.0 401:237.0 402:243.0 403:255.0 404:255.0 405:255.0 406:255.0 407:175.0 408:167.0 409:15.0 410:254.0 411:237.0 412:247.0 413:0.0 414:0.0 415:0.0 416:0.0 417:0.0 418:0.0 419:0.0 420:0.0 421:0.0 422:0.0 423:0.0 424:0.0 425:0.0 426:0.0 427:0.0 428:0.0 429:0.0 430:0.0 431:0.0 432:0.0 433:0.0 434:0.0 435:0.0 436:0.0 437:0.0 438:0.0 439:0.0 440:0.0 441:0.0 442:0.0 443:0.0 444:0.0 445:0.0 446:0.0 447:0.0 448:0.0 449:0.0 450:0.0 451:0.0 452:0.0 453:0.0 454:0.0 455:0.0 456:0.0 457:0.0 458:0.0 459:0.0 460:0.0 461:0.0 462:0.0 463:0.0 464:0.0 465:0.0 466:0.0 467:0.0 468:0.0 469:0.0 470:0.0 471:0.0 472:0.0 473:0.0 474:0.0 475:0.0 476:0.0 477:0.0 478:0.0 479:0.0 480:0.0 481:0.0 482:0.0 483:0.0 484:0.0 485:0.0 486:0.0 487:0.0 488:0.0 489:0.0 490:0.0 491:0.0 492:0.0 493:0.0 494:0.0 495:0.0 496:0.0 497:0.0 498:0.0 499:0.0 500:0.0 501:0.0 502:0.0 503:0.0 504:0.0 505:0.0 506:0.0 507:0.0 508:0.0 509:0.0 510:0.0 511:0.0 512:0.0 513:0.0 514:0.0 515:0.0 516:0.0 517:0.0 518:0.0 519:0.0 520:0.0 521:0.0 522:0.0 523:0.0 524:0.0 525:0.0 526:0.0 527:0.0 528:0.0 529:0.0 530:0.0 531:0.0 532:0.0 533:0.0 534:0.0 535:0.0 536:0.0 537:0.0 538:0.0 539:0.0 540:0.0 541:0.0 542:0.0 543:0.0 544:0.0 545:0.0 546:0.0 547:0.0 548:0.0 549:0.0 550:0.0 551:0.0 552:0.0 553:0.0 554:0.0 555:0.0 556:0.0 557:0.0 558:0.0 559:0.0 560:0.0 561:0.0 562:0.0 563:0.0 564:0.0 565:0.0 566:0.0 567:0.0 568:0.0 569:0.0 570:0.0 571:0.0 572:0.0 573:0.0 574:0.0 575:0.0 576:0.0 577:0.0 578:0.0 579:0.0 580:0.0 581:0.0 582:0.0 583:0.0 584:0.0 585:0.0 586:0.0 587:0.0 588:0.0 589:0.0 590:0.0 591:0.0 592:0.0 593:0.0 594:0.0 595:0.0 596:0.0 597:0.0 598:0.0 599:0.0 600:0.0 601:0.0 602:0.0 603:0.0 604:0.0 605:0.0 606:0.0 607:0.0 608:0.0 609:0.0 610:0.0 611:0.0 612:0.0 613:0.0 614:0.0 615:0.0 616:0.0 617:0.0 618:0.0 619:0.0 620:0.0 621:0.0 622:0.0 623:0.0 624:0.0 625:0.0 626:0.0 627:0.0 628:0.0 629:0.0 630:0.0 631:0.0 632:0.0 633:0.0 634:0.0 635:0.0 636:0.0 637:0.0 638:0.0 639:0.0 640:0.0 
1.038016568312771E-18 1.6149458888868336E-18 1:122.0 2:57.0 3:49.0 4:230.0 5:45.0 6:93.0 7:94.0 8:113.0 9:63.0 10:106.0 11:182.0 12:47.0 13:255.0 14:29.0 15:0.0 16:240.0 17:254.0 18:149.0 19:253.0 20:103.0 21:229.0 22:36.0 23:209.0 24:77.0 25:248.0 26:123.0 27:226.0 28:107.0 29:123.0 30:235.0 31:123.0 32:124.0 33:82.0 34:248.0 35:222.0 36:177.0 37:187.0 38:205.0 39:102.0 40:49.0 41:59.0 42:141.0 43:106.0 44:222.0 45:214.0 46:147.0 47:239.0 48:117.0 49:213.0 50:64.0 51:222.0 52:130.0 53:121.0 54:236.0 55:182.0 56:100.0 57:126.0 58:234.0 59:23.0 60:239.0 61:152.0 62:206.0 63:29.0 64:127.0 65:8.0 66:153.0 67:156.0 68:181.0 69:164.0 70:23.0 71:163.0 72:208.0 73:231.0 74:108.0 75:8.0 76:227.0 77:143.0 78:243.0 79:232.0 80:3.0 81:84.0 82:221.0 83:62.0 84:46.0 85:186.0 86:234.0 87:23.0 88:232.0 89:229.0 90:16.0 91:159.0 92:33.0 93:215.0 94:125.0 95:43.0 96:96.0 97:51.0 98:241.0 99:108.0 100:99.0 101:101.0 102:59.0 103:136.0 104:164.0 105:168.0 106:14.0 107:94.0 108:49.0 109:34.0 110:170.0 111:138.0 112:205.0 113:199.0 114:232.0 115:82.0 116:82.0 117:149.0 118:237.0 119:125.0 120:21.0 121:96.0 122:172.0 123:149.0 124:190.0 125:41.0 126:237.0 127:64.0 128:138.0 129:147.0 130:17.0 131:169.0 132:9.0 133:247.0 134:244.0 135:73.0 136:146.0 137:201.0 138:210.0 139:236.0 140:0.0 141:161.0 142:221.0 143:87.0 144:127.0 145:208.0 146:166.0 147:110.0 148:246.0 149:116.0 150:202.0 151:250.0 152:64.0 153:113.0 154:119.0 155:49.0 156:241.0 157:93.0 158:254.0 159:18.0 160:170.0 161:169.0 162:213.0 163:123.0 164:65.0 165:52.0 166:95.0 167:231.0 168:245.0 169:124.0 170:72.0 171:118.0 172:112.0 173:219.0 174:28.0 175:148.0 176:177.0 177:180.0 178:28.0 179:86.0 180:104.0 181:22.0 182:46.0 183:47.0 184:195.0 185:12.0 186:15.0 187:171.0 188:112.0 189:188.0 190:166.0 191:199.0 192:199.0 193:230.0 194:133.0 195:48.0 196:5.0 197:188.0 198:36.0 199:75.0 200:111.0 201:161.0 202:52.0 203:66.0 204:9.0 205:78.0 206:13.0 207:164.0 208:91.0 209:118.0 210:34.0 211:250.0 212:78.0 213:51.0 214:144.0 215:49.0 216:184.0 217:120.0 218:142.0 219:98.0 220:29.0 221:52.0 222:224.0 223:97.0 224:99.0 225:56.0 226:203.0 227:83.0 228:0.0 229:235.0 230:125.0 231:177.0 232:185.0 233:211.0 234:205.0 235:158.0 236:16.0 237:59.0 238:168.0 239:77.0 240:87.0 241:196.0 242:82.0 243:213.0 244:183.0 245:170.0 246:74.0 247:85.0 248:157.0 249:250.0 250:246.0 251:3.0 252:253.0 253:215.0 254:51.0 255:195.0 256:91.0 257:7.0 258:68.0 259:108.0 260:98.0 261:21.0 262:43.0 263:207.0 264:53.0 265:208.0 266:42.0 267:106.0 268:26.0 269:118.0 270:160.0 271:98.0 272:194.0 273:211.0 274:32.0 275:144.0 276:80.0 277:121.0 278:236.0 279:42.0 280:172.0 281:71.0 282:136.0 283:142.0 284:221.0 285:141.0 286:180.0 287:69.0 288:135.0 289:183.0 290:23.0 291:198.0 292:18.0 293:100.0 294:243.0 295:42.0 296:239.0 297:97.0 298:230.0 299:122.0 300:156.0 301:230.0 302:110.0 303:197.0 304:30.0 305:232.0 306:233.0 307:133.0 308:142.0 309:186.0 310:214.0 311:160.0 312:184.0 313:162.0 314:212.0 315:207.0 316:63.0 317:3.0 318:114.0 319:104.0 320:2.0 321:148.0 322:47.0 323:188.0 324:183.0 325:168.0 326:67.0 327:31.0 328:217.0 329:22.0 330:251.0 331:95.0 332:179.0 333:215.0 334:175.0 335:83.0 336:11.0 337:63.0 338:95.0 339:61.0 340:179.0 341:24.0 342:184.0 343:172.0 344:117.0 345:11.0 346:255.0 347:80.0 348:31.0 349:55.0 350:255.0 351:134.0 352:185.0 353:251.0 354:21.0 355:66.0 356:171.0 357:37.0 358:22.0 359:253.0 360:144.0 361:192.0 362:104.0 363:222.0 364:182.0 365:87.0 366:170.0 367:48.0 368:68.0 369:235.0 370:149.0 371:99.0 372:19.0 373:100.0 374:251.0 375:97.0 376:90.0 377:163.0 378:255.0 379:234.0 380:17.0 381:237.0 382:164.0 383:112.0 384:89.0 385:173.0 386:61.0 387:84.0 388:219.0 389:235.0 390:127.0 391:180.0 392:24.0 393:139.0 394:152.0 395:222.0 396:189.0 397:139.0 398:138.0 399:204.0 400:14.0 401:254.0 402:38.0 403:230.0 404:177.0 405:166.0 406:249.0 407:80.0 408:127.0 409:226.0 410:204.0 411:206.0 412:229.0 413:0.0 414:0.0 415:0.0 416:0.0 417:0.0 418:0.0 419:0.0 420:0.0 421:0.0 422:0.0 423:0.0 424:0.0 425:0.0 426:0.0 427:0.0 428:0.0 429:0.0 430:0.0 431:0.0 432:0.0 433:0.0 434:0.0 435:0.0 436:0.0 437:0.0 438:0.0 439:0.0 440:0.0 441:0.0 442:0.0 443:0.0 444:0.0 445:0.0 446:0.0 447:0.0 448:0.0 449:0.0 450:0.0 451:0.0 452:0.0 453:0.0 454:0.0 455:0.0 456:0.0 457:0.0 458:0.0 459:0.0 460:0.0 461:0.0 462:0.0 463:0.0 464:0.0 465:0.0 466:0.0 467:0.0 468:0.0 469:0.0 470:0.0 471:0.0 472:0.0 473:0.0 474:0.0 475:0.0 476:0.0 477:0.0 478:0.0 479:0.0 480:0.0 481:0.0 482:0.0 483:0.0 484:0.0 485:0.0 486:0.0 487:0.0 488:0.0 489:0.0 490:0.0 491:0.0 492:0.0 493:0.0 494:0.0 495:0.0 496:0.0 497:0.0 498:0.0 499:0.0 500:0.0 501:0.0 502:0.0 503:0.0 504:0.0 505:0.0 506:0.0 507:0.0 508:0.0 509:0.0 510:0.0 511:0.0 512:0.0 513:0.0 514:0.0 515:0.0 516:0.0 517:0.0 518:0.0 519:0.0 520:0.0 521:0.0 522:0.0 523:0.0 524:0.0 525:0.0 526:0.0 527:0.0 528:0.0 529:0.0 530:0.0 531:0.0 532:0.0 533:0.0 534:0.0 535:0.0 536:0.0 537:0.0 538:0.0 539:0.0 540:0.0 541:0.0 542:0.0 543:0.0 544:0.0 545:0.0 546:0.0 547:0.0 548:0.0 549:0.0 550:0.0 551:0.0 552:0.0 553:0.0 554:0.0 555:0.0 556:0.0 557:0.0 558:0.0 559:0.0 560:0.0 561:0.0 562:0.0 563:0.0 564:0.0 565:0.0 566:0.0 567:0.0 568:0.0 569:0.0 570:0.0 571:0.0 572:0.0 573:0.0 574:0.0 575:0.0 576:0.0 577:0.0 578:0.0 579:0.0 580:0.0 581:0.0 582:0.0 583:0.0 584:0.0 585:0.0 586:0.0 587:0.0 588:0.0 589:0.0 590:0.0 591:0.0 592:0.0 593:0.0 594:0.0 595:0.0 596:0.0 597:0.0 598:0.0 599:0.0 600:0.0 601:0.0 602:0.0 603:0.0 604:0.0 605:0.0 606:0.0 607:0.0 608:0.0 609:0.0 610:0.0 611:0.0 612:0.0 613:0.0 614:0.0 615:0.0 616:0.0 617:0.0 618:0.0 619:0.0 620:0.0 621:0.0 622:0.0 623:0.0 624:0.0 625:0.0 626:0.0 627:0.0 628:0.0 629:0.0 630:0.0 631:0.0 632:0.0 633:0.0 634:0.0 635:0.0 636:0.0 637:0.0 638:0.0 639:0.0 640:0.0 
2.0867747991420045E-18 1.5233782281638494E-18 1:41.0 2:72.0 3:220.0 4:191.0 5:100.0 6:132.0 7:226.0 8:154.0 9:84.0 10:79.0 11:80.0 12:87.0 13:52.0 14:200.0 15:146.0 16:10.0 17:79.0 18:74.0 19:34.0 20:14.0 21:33.0 22:29.0 23:46.0 24:149.0 25:244.0 26:166.0 27:244.0 28:55.0 29:72.0 30:104.0 31:126.0 32:69.0 33:176.0 34:61.0 35:21.0 36:65.0 37:204.0 38:126.0 39:53.0 40:45.0 41:194.0 42:1.0 43:225.0 44:223.0 45:14.0 46:120.0 47:164.0 48:12.0 49:30.0 50:18.0 51:81.0 52:146.0 53:160.0 54:76.0 55:124.0 56:239.0 57:104.0 58:82.0 59:170.0 60:65.0 61:186.0 62:17.0 63:115.0 64:238.0 65:125.0 66:223.0 67:91.0 68:121.0 69:157.0 70:204.0 71:181.0 72:35.0 73:127.0 74:255.0 75:62.0 76:97.0 77:254.0 78:177.0 79:159.0 80:225.0 81:2.0 82:56.0 83:26.0 84:184.0 85:223.0 86:209.0 87:59.0 88:66.0 89:134.0 90:197.0 91:20.0 92:54.0 93:188.0 94:147.0 95:98.0 96:68.0 97:110.0 98:59.0 99:147.0 100:145.0 101:28.0 102:67.0 103:2.0 104:135.0 105:133.0 106:38.0 107:197.0 108:117.0 109:65.0 110:140.0 111:125.0 112:67.0 113:78.0 114:33.0 115:10.0 116:143.0 117:92.0 118:166.0 119:166.0 120:35.0 121:36.0 122:150.0 123:172.0 124:176.0 125:172.0 126:7.0 127:150.0 128:222.0 129:150.0 130:179.0 131:180.0 132:115.0 133:128.0 134:181.0 135:98.0 136:74.0 137:221.0 138:84.0 139:35.0 140:6.0 141:134.0 142:153.0 143:124.0 144:90.0 145:192.0 146:112.0 147:3.0 148:128.0 149:60.0 150:25.0 151:164.0 152:48.0 153:88.0 154:55.0 155:133.0 156:124.0 157:99.0 158:19.0 159:22.0 160:218.0 161:47.0 162:222.0 163:247.0 164:223.0 165:239.0 166:215.0 167:255.0 168:255.0 169:31.0 170:223.0 171:247.0 172:247.0 173:232.0 174:255.0 175:239.0 176:236.0 177:255.0 178:251.0 179:191.0 180:146.0 181:11.0 182:135.0 183:2.0 184:173.0 185:180.0 186:132.0 187:174.0 188:71.0 189:12.0 190:73.0 191:88.0 192:231.0 193:188.0 194:42.0 195:186.0 196:192.0 197:254.0 198:11.0 199:23.0 200:141.0 201:83.0 202:193.0 203:8.0 204:136.0 205:62.0 206:144.0 207:74.0 208:170.0 209:138.0 210:65.0 211:136.0 212:143.0 213:197.0 214:194.0 215:58.0 216:208.0 217:86.0 218:201.0 219:173.0 220:238.0 221:38.0 222:134.0 223:226.0 224:169.0 225:214.0 226:160.0 227:169.0 228:131.0 229:6.0 230:23.0 231:90.0 232:179.0 233:9.0 234:175.0 235:52.0 236:64.0 237:79.0 238:159.0 239:19.0 240:149.0 241:192.0 242:220.0 243:21.0 244:192.0 245:46.0 246:73.0 247:148.0 248:43.0 249:78.0 250:154.0 251:176.0 252:122.0 253:156.0 254:16.0 255:224.0 256:195.0 257:3.0 258:17.0 259:106.0 260:8.0 261:78.0 262:134.0 263:68.0 264:168.0 265:255.0 266:9.0 267:94.0 268:184.0 269:135.0 270:48.0 271:9.0 272:187.0 273:205.0 274:235.0 275:35.0 276:72.0 277:215.0 278:17.0 279:151.0 280:39.0 281:63.0 282:182.0 283:254.0 284:249.0 285:253.0 286:127.0 287:251.0 288:216.0 289:191.0 290:223.0 291:253.0 292:167.0 293:207.0 294:255.0 295:255.0 296:110.0 297:255.0 298:223.0 299:255.0 300:181.0 301:128.0 302:23.0 303:149.0 304:206.0 305:13.0 306:36.0 307:129.0 308:150.0 309:131.0 310:10.0 311:152.0 312:102.0 313:178.0 314:177.0 315:161.0 316:198.0 317:76.0 318:122.0 319:2.0 320:64.0 321:47.0 322:122.0 323:254.0 324:249.0 325:237.0 326:127.0 327:255.0 328:218.0 329:191.0 330:254.0 331:252.0 332:175.0 333:221.0 334:255.0 335:247.0 336:236.0 337:255.0 338:253.0 339:255.0 340:183.0 341:79.0 342:148.0 343:80.0 344:185.0 345:254.0 346:169.0 347:118.0 348:179.0 349:31.0 350:65.0 351:30.0 352:253.0 353:255.0 354:109.0 355:26.0 356:64.0 357:23.0 358:2.0 359:190.0 360:1.0 361:152.0 362:6.0 363:208.0 364:192.0 365:195.0 366:35.0 367:46.0 368:222.0 369:16.0 370:130.0 371:172.0 372:198.0 373:12.0 374:35.0 375:33.0 376:76.0 377:119.0 378:211.0 379:130.0 380:168.0 381:1.0 382:15.0 383:128.0 384:131.0 385:148.0 386:39.0 387:99.0 388:214.0 389:6.0 390:168.0 391:28.0 392:66.0 393:16.0 394:49.0 395:243.0 396:36.0 397:56.0 398:206.0 399:18.0 400:13.0 401:128.0 402:144.0 403:9.0 404:146.0 405:73.0 406:12.0 407:169.0 408:180.0 409:183.0 410:127.0 411:80.0 412:161.0 413:0.0 414:0.0 415:0.0 416:0.0 417:0.0 418:0.0 419:0.0 420:0.0 421:0.0 422:0.0 423:0.0 424:0.0 425:0.0 426:0.0 427:0.0 428:0.0 429:0.0 430:0.0 431:0.0 432:0.0 433:0.0 434:0.0 435:0.0 436:0.0 437:0.0 438:0.0 439:0.0 440:0.0 441:0.0 442:0.0 443:0.0 444:0.0 445:0.0 446:0.0 447:0.0 448:0.0 449:0.0 450:0.0 451:0.0 452:0.0 453:0.0 454:0.0 455:0.0 456:0.0 457:0.0 458:0.0 459:0.0 460:0.0 461:0.0 462:0.0 463:0.0 464:0.0 465:0.0 466:0.0 467:0.0 468:0.0 469:0.0 470:0.0 471:0.0 472:0.0 473:0.0 474:0.0 475:0.0 476:0.0 477:0.0 478:0.0 479:0.0 480:0.0 481:0.0 482:0.0 483:0.0 484:0.0 485:0.0 486:0.0 487:0.0 488:0.0 489:0.0 490:0.0 491:0.0 492:0.0 493:0.0 494:0.0 495:0.0 496:0.0 497:0.0 498:0.0 499:0.0 500:0.0 501:0.0 502:0.0 503:0.0 504:0.0 505:0.0 506:0.0 507:0.0 508:0.0 509:0.0 510:0.0 511:0.0 512:0.0 513:0.0 514:0.0 515:0.0 516:0.0 517:0.0 518:0.0 519:0.0 520:0.0 521:0.0 522:0.0 523:0.0 524:0.0 525:0.0 526:0.0 527:0.0 528:0.0 529:0.0 530:0.0 531:0.0 532:0.0 533:0.0 534:0.0 535:0.0 536:0.0 537:0.0 538:0.0 539:0.0 540:0.0 541:0.0 542:0.0 543:0.0 544:0.0 545:0.0 546:0.0 547:0.0 548:0.0 549:0.0 550:0.0 551:0.0 552:0.0 553:0.0 554:0.0 555:0.0 556:0.0 557:0.0 558:0.0 559:0.0 560:0.0 561:0.0 562:0.0 563:0.0 564:0.0 565:0.0 566:0.0 567:0.0 568:0.0 569:0.0 570:0.0 571:0.0 572:0.0 573:0.0 574:0.0 575:0.0 576:0.0 577:0.0 578:0.0 579:0.0 580:0.0 581:0.0 582:0.0 583:0.0 584:0.0 585:0.0 586:0.0 587:0.0 588:0.0 589:0.0 590:0.0 591:0.0 592:0.0 593:0.0 594:0.0 595:0.0 596:0.0 597:0.0 598:0.0 599:0.0 600:0.0 601:0.0 602:0.0 603:0.0 604:0.0 605:0.0 606:0.0 607:0.0 608:0.0 609:0.0 610:0.0 611:0.0 612:0.0 613:0.0 614:0.0 615:0.0 616:0.0 617:0.0 618:0.0 619:0.0 620:0.0 621:0.0 622:0.0 623:0.0 624:0.0 625:0.0 626:0.0 627:0.0 628:0.0 629:0.0 630:0.0 631:0.0 632:0.0 633:0.0 634:0.0 635:0.0 636:0.0 637:0.0 638:0.0 639:0.0 640:0.0 
-3.042774852448768E-18 1.9626601611621747E-18 1:27.0 2:141.0 3:66.0 4:174.0 5:214.0 6:146.0 7:238.0 8:247.0 9:149.0 10:64.0 11:218.0 12:134.0 13:121.0 14:234.0 15:48.0 16:228.0 17:122.0 18:235.0 19:19.0 20:235.0 21:104.0 22:249.0 23:56.0 24:98.0 25:61.0 26:205.0 27:83.0 28:151.0 29:235.0 30:37.0 31:172.0 32:8.0 33:191.0 34:151.0 35:66.0 36:48.0 37:128.0 38:186.0 39:77.0 40:80.0 41:131.0 42:18.0 43:234.0 44:219.0 45:102.0 46:185.0 47:185.0 48:82.0 49:63.0 50:87.0 51:87.0 52:182.0 53:157.0 54:142.0 55:254.0 56:104.0 57:111.0 58:25.0 59:55.0 60:149.0 61:49.0 62:79.0 63:121.0 64:101.0 65:244.0 66:10.0 67:111.0 68:63.0 69:112.0 70:170.0 71:122.0 72:234.0 73:83.0 74:33.0 75:145.0 76:48.0 77:126.0 78:206.0 79:22.0 80:238.0 81:18.0 82:141.0 83:46.0 84:248.0 85:149.0 86:192.0 87:225.0 88:103.0 89:148.0 90:5.0 91:206.0 92:18.0 93:33.0 94:233.0 95:48.0 96:64.0 97:104.0 98:170.0 99:3.0 100:129.0 101:66.0 102:138.0 103:150.0 104:157.0 105:114.0 106:130.0 107:184.0 108:103.0 109:189.0 110:3.0 111:74.0 112:247.0 113:172.0 114:170.0 115:36.0 116:196.0 117:230.0 118:63.0 119:187.0 120:133.0 121:34.0 122:205.0 123:35.0 124:190.0 125:85.0 126:135.0 127:239.0 128:230.0 129:31.0 130:1.0 131:216.0 132:3.0 133:100.0 134:232.0 135:48.0 136:64.0 137:217.0 138:107.0 139:19.0 140:71.0 141:195.0 142:20.0 143:182.0 144:149.0 145:169.0 146:116.0 147:57.0 148:7.0 149:187.0 150:91.0 151:22.0 152:49.0 153:188.0 154:190.0 155:70.0 156:111.0 157:167.0 158:55.0 159:255.0 160:129.0 161:50.0 162:223.0 163:98.0 164:202.0 165:214.0 166:195.0 167:191.0 168:231.0 169:69.0 170:68.0 171:216.0 172:167.0 173:40.0 174:140.0 175:54.0 176:64.0 177:254.0 178:187.0 179:147.0 180:193.0 181:27.0 182:143.0 183:98.0 184:138.0 185:214.0 186:179.0 187:234.0 188:247.0 189:20.0 190:65.0 191:222.0 192:227.0 193:121.0 194:239.0 195:180.0 196:228.0 197:126.0 198:171.0 199:23.0 200:189.0 201:177.0 202:223.0 203:75.0 204:172.0 205:116.0 206:131.0 207:207.0 208:244.0 209:148.0 210:64.0 211:240.0 212:230.0 213:49.0 214:199.0 215:177.0 216:64.0 217:126.0 218:168.0 219:23.0 220:239.0 221:153.0 222:31.0 223:111.0 224:37.0 225:178.0 226:18.0 227:111.0 228:55.0 229:52.0 230:206.0 231:94.0 232:230.0 233:121.0 234:39.0 235:147.0 236:229.0 237:54.0 238:111.0 239:52.0 240:236.0 241:147.0 242:143.0 243:103.0 244:188.0 245:182.0 246:226.0 247:174.0 248:247.0 249:212.0 250:66.0 251:90.0 252:246.0 253:45.0 254:174.0 255:176.0 256:65.0 257:111.0 258:115.0 259:23.0 260:129.0 261:2.0 262:141.0 263:48.0 264:153.0 265:245.0 266:241.0 267:180.0 268:239.0 269:30.0 270:5.0 271:72.0 272:19.0 273:172.0 274:190.0 275:38.0 276:64.0 277:217.0 278:59.0 279:163.0 280:17.0 281:49.0 282:207.0 283:75.0 284:190.0 285:212.0 286:135.0 287:239.0 288:246.0 289:22.0 290:64.0 291:90.0 292:198.0 293:113.0 294:227.0 295:177.0 296:64.0 297:125.0 298:106.0 299:2.0 300:206.0 301:241.0 302:74.0 303:46.0 304:190.0 305:12.0 306:133.0 307:79.0 308:244.0 309:212.0 310:78.0 311:208.0 312:70.0 313:115.0 314:217.0 315:177.0 316:65.0 317:72.0 318:224.0 319:63.0 320:203.0 321:3.0 322:143.0 323:42.0 324:141.0 325:148.0 326:130.0 327:174.0 328:103.0 329:61.0 330:65.0 331:90.0 332:199.0 333:172.0 334:170.0 335:54.0 336:68.0 337:126.0 338:43.0 339:19.0 340:141.0 341:47.0 342:181.0 343:48.0 344:234.0 345:253.0 346:253.0 347:83.0 348:121.0 349:75.0 350:121.0 351:189.0 352:9.0 353:138.0 354:221.0 355:94.0 356:52.0 357:217.0 358:154.0 359:223.0 360:49.0 361:3.0 362:159.0 363:199.0 364:157.0 365:242.0 366:162.0 367:172.0 368:55.0 369:60.0 370:67.0 371:90.0 372:247.0 373:164.0 374:162.0 375:164.0 376:197.0 377:119.0 378:111.0 379:55.0 380:133.0 381:26.0 382:206.0 383:66.0 384:158.0 385:86.0 386:147.0 387:234.0 388:112.0 389:159.0 390:72.0 391:88.0 392:230.0 393:105.0 394:202.0 395:180.0 396:196.0 397:126.0 398:169.0 399:151.0 400:205.0 401:131.0 402:191.0 403:14.0 404:255.0 405:18.0 406:109.0 407:171.0 408:200.0 409:63.0 410:143.0 411:105.0 412:149.0 413:0.0 414:0.0 415:0.0 416:0.0 417:0.0 418:0.0 419:0.0 420:0.0 421:0.0 422:0.0 423:0.0 424:0.0 425:0.0 426:0.0 427:0.0 428:0.0 429:0.0 430:0.0 431:0.0 432:0.0 433:0.0 434:0.0 435:0.0 436:0.0 437:0.0 438:0.0 439:0.0 440:0.0 441:0.0 442:0.0 443:0.0 444:0.0 445:0.0 446:0.0 447:0.0 448:0.0 449:0.0 450:0.0 451:0.0 452:0.0 453:0.0 454:0.0 455:0.0 456:0.0 457:0.0 458:0.0 459:0.0 460:0.0 461:0.0 462:0.0 463:0.0 464:0.0 465:0.0 466:0.0 467:0.0 468:0.0 469:0.0 470:0.0 471:0.0 472:0.0 473:0.0 474:0.0 475:0.0 476:0.0 477:0.0 478:0.0 479:0.0 480:0.0 481:0.0 482:0.0 483:0.0 484:0.0 485:0.0 486:0.0 487:0.0 488:0.0 489:0.0 490:0.0 491:0.0 492:0.0 493:0.0 494:0.0 495:0.0 496:0.0 497:0.0 498:0.0 499:0.0 500:0.0 501:0.0 502:0.0 503:0.0 504:0.0 505:0.0 506:0.0 507:0.0 508:0.0 509:0.0 510:0.0 511:0.0 512:0.0 513:0.0 514:0.0 515:0.0 516:0.0 517:0.0 518:0.0 519:0.0 520:0.0 521:0.0 522:0.0 523:0.0 524:0.0 525:0.0 526:0.0 527:0.0 528:0.0 529:0.0 530:0.0 531:0.0 532:0.0 533:0.0 534:0.0 535:0.0 536:0.0 537:0.0 538:0.0 539:0.0 540:0.0 541:0.0 542:0.0 543:0.0 544:0.0 545:0.0 546:0.0 547:0.0 548:0.0 549:0.0 550:0.0 551:0.0 552:0.0 553:0.0 554:0.0 555:0.0 556:0.0 557:0.0 558:0.0 559:0.0 560:0.0 561:0.0 562:0.0 563:0.0 564:0.0 565:0.0 566:0.0 567:0.0 568:0.0 569:0.0 570:0.0 571:0.0 572:0.0 573:0.0 574:0.0 575:0.0 576:0.0 577:0.0 578:0.0 579:0.0 580:0.0 581:0.0 582:0.0 583:0.0 584:0.0 585:0.0 586:0.0 587:0.0 588:0.0 589:0.0 590:0.0 591:0.0 592:0.0 593:0.0 594:0.0 595:0.0 596:0.0 597:0.0 598:0.0 599:0.0 600:0.0 601:0.0 602:0.0 603:0.0 604:0.0 605:0.0 606:0.0 607:0.0 608:0.0 609:0.0 610:0.0 611:0.0 612:0.0 613:0.0 614:0.0 615:0.0 616:0.0 617:0.0 618:0.0 619:0.0 620:0.0 621:0.0 622:0.0 623:0.0 624:0.0 625:0.0 626:0.0 627:0.0 628:0.0 629:0.0 630:0.0 631:0.0 632:0.0 633:0.0 634:0.0 635:0.0 636:0.0 637:0.0 638:0.0 639:0.0 640:0.0 
-1.8933472635501454E-19 0.0 1:125.0 2:5.0 3:68.0 4:36.0 5:148.0 6:18.0 7:78.0 8:49.0 9:65.0 10:224.0 11:251.0 12:74.0 13:67.0 14:104.0 15:17.0 16:224.0 17:88.0 18:228.0 19:60.0 20:174.0 21:43.0 22:191.0 23:250.0 24:223.0 25:255.0 26:255.0 27:254.0 28:254.0 29:63.0 30:237.0 31:254.0 32:191.0 33:109.0 34:254.0 35:246.0 36:244.0 37:255.0 38:255.0 39:191.0 40:149.0 41:143.0 42:189.0 43:246.0 44:255.0 45:255.0 46:93.0 47:255.0 48:255.0 49:63.0 50:255.0 51:247.0 52:191.0 53:237.0 54:255.0 55:190.0 56:237.0 57:255.0 58:255.0 59:255.0 60:223.0 61:207.0 62:189.0 63:246.0 64:254.0 65:255.0 66:95.0 67:255.0 68:255.0 69:63.0 70:255.0 71:246.0 72:191.0 73:237.0 74:255.0 75:190.0 76:239.0 77:255.0 78:223.0 79:255.0 80:247.0 81:143.0 82:253.0 83:254.0 84:218.0 85:239.0 86:255.0 87:255.0 88:253.0 89:255.0 90:223.0 91:253.0 92:55.0 93:221.0 94:253.0 95:254.0 96:237.0 97:255.0 98:255.0 99:255.0 100:167.0 101:159.0 102:253.0 103:246.0 104:255.0 105:253.0 106:127.0 107:255.0 108:254.0 109:63.0 110:254.0 111:255.0 112:63.0 113:237.0 114:255.0 115:191.0 116:101.0 117:255.0 118:255.0 119:255.0 120:247.0 121:63.0 122:87.0 123:123.0 124:239.0 125:118.0 126:87.0 127:255.0 128:248.0 129:109.0 130:236.0 131:255.0 132:230.0 133:91.0 134:221.0 135:191.0 136:228.0 137:126.0 138:253.0 139:151.0 140:239.0 141:63.0 142:85.0 143:122.0 144:238.0 145:118.0 146:87.0 147:255.0 148:248.0 149:125.0 150:204.0 151:253.0 152:174.0 153:95.0 154:223.0 155:191.0 156:116.0 157:126.0 158:253.0 159:151.0 160:238.0 161:175.0 162:255.0 163:239.0 164:255.0 165:253.0 166:255.0 167:255.0 168:254.0 169:127.0 170:254.0 171:255.0 172:247.0 173:253.0 174:255.0 175:191.0 176:101.0 177:255.0 178:255.0 179:255.0 180:247.0 181:45.0 182:252.0 183:243.0 184:255.0 185:245.0 186:215.0 187:251.0 188:222.0 189:83.0 190:109.0 191:124.0 192:2.0 193:57.0 194:205.0 195:181.0 196:97.0 197:255.0 198:254.0 199:151.0 200:92.0 201:206.0 202:176.0 203:180.0 204:251.0 205:237.0 206:253.0 207:176.0 208:207.0 209:191.0 210:255.0 211:181.0 212:25.0 213:172.0 214:254.0 215:78.0 216:111.0 217:197.0 218:27.0 219:251.0 220:17.0 221:191.0 222:159.0 223:233.0 224:191.0 225:255.0 226:220.0 227:255.0 228:253.0 229:27.0 230:254.0 231:213.0 232:183.0 233:204.0 234:252.0 235:254.0 236:229.0 237:255.0 238:255.0 239:191.0 240:199.0 241:34.0 242:173.0 243:226.0 244:158.0 245:221.0 246:247.0 247:190.0 248:231.0 249:159.0 250:134.0 251:252.0 252:3.0 253:108.0 254:254.0 255:54.0 256:196.0 257:251.0 258:251.0 259:179.0 260:211.0 261:159.0 262:255.0 263:255.0 264:255.0 265:254.0 266:91.0 267:255.0 268:252.0 269:63.0 270:234.0 271:246.0 272:231.0 273:255.0 274:253.0 275:183.0 276:247.0 277:255.0 278:255.0 279:255.0 280:239.0 281:31.0 282:237.0 283:255.0 284:255.0 285:254.0 286:151.0 287:255.0 288:252.0 289:255.0 290:194.0 291:255.0 292:70.0 293:249.0 294:239.0 295:191.0 296:228.0 297:127.0 298:239.0 299:127.0 300:239.0 301:143.0 302:181.0 303:246.0 304:255.0 305:255.0 306:95.0 307:254.0 308:253.0 309:63.0 310:238.0 311:255.0 312:167.0 313:237.0 314:254.0 315:126.0 316:228.0 317:255.0 318:255.0 319:255.0 320:231.0 321:191.0 322:126.0 323:119.0 324:255.0 325:255.0 326:255.0 327:254.0 328:254.0 329:127.0 330:239.0 331:255.0 332:255.0 333:205.0 334:255.0 335:159.0 336:244.0 337:255.0 338:255.0 339:255.0 340:183.0 341:127.0 342:118.0 343:246.0 344:254.0 345:255.0 346:63.0 347:255.0 348:221.0 349:191.0 350:239.0 351:255.0 352:191.0 353:109.0 354:255.0 355:191.0 356:244.0 357:255.0 358:255.0 359:255.0 360:159.0 361:95.0 362:190.0 363:255.0 364:255.0 365:252.0 366:95.0 367:251.0 368:248.0 369:63.0 370:237.0 371:246.0 372:230.0 373:253.0 374:255.0 375:255.0 376:102.0 377:255.0 378:223.0 379:255.0 380:247.0 381:255.0 382:255.0 383:254.0 384:255.0 385:237.0 386:127.0 387:255.0 388:252.0 389:191.0 390:206.0 391:255.0 392:191.0 393:95.0 394:255.0 395:190.0 396:228.0 397:255.0 398:255.0 399:255.0 400:231.0 401:237.0 402:227.0 403:251.0 404:251.0 405:247.0 406:255.0 407:239.0 408:159.0 409:191.0 410:255.0 411:238.0 412:247.0 413:0.0 414:0.0 415:0.0 416:0.0 417:0.0 418:0.0 419:0.0 420:0.0 421:0.0 422:0.0 423:0.0 424:0.0 425:0.0 426:0.0 427:0.0 428:0.0 429:0.0 430:0.0 431:0.0 432:0.0 433:0.0 434:0.0 435:0.0 436:0.0 437:0.0 438:0.0 439:0.0 440:0.0 441:0.0 442:0.0 443:0.0 444:0.0 445:0.0 446:0.0 447:0.0 448:0.0 449:0.0 450:0.0 451:0.0 452:0.0 453:0.0 454:0.0 455:0.0 456:0.0 457:0.0 458:0.0 459:0.0 460:0.0 461:0.0 462:0.0 463:0.0 464:0.0 465:0.0 466:0.0 467:0.0 468:0.0 469:0.0 470:0.0 471:0.0 472:0.0 473:0.0 474:0.0 475:0.0 476:0.0 477:0.0 478:0.0 479:0.0 480:0.0 481:0.0 482:0.0 483:0.0 484:0.0 485:0.0 486:0.0 487:0.0 488:0.0 489:0.0 490:0.0 491:0.0 492:0.0 493:0.0 494:0.0 495:0.0 496:0.0 497:0.0 498:0.0 499:0.0 500:0.0 501:0.0 502:0.0 503:0.0 504:0.0 505:0.0 506:0.0 507:0.0 508:0.0 509:0.0 510:0.0 511:0.0 512:0.0 513:0.0 514:0.0 515:0.0 516:0.0 517:0.0 518:0.0 519:0.0 520:0.0 521:0.0 522:0.0 523:0.0 524:0.0 525:0.0 526:0.0 527:0.0 528:0.0 529:0.0 530:0.0 531:0.0 532:0.0 533:0.0 534:0.0 535:0.0 536:0.0 537:0.0 538:0.0 539:0.0 540:0.0 541:0.0 542:0.0 543:0.0 544:0.0 545:0.0 546:0.0 547:0.0 548:0.0 549:0.0 550:0.0 551:0.0 552:0.0 553:0.0 554:0.0 555:0.0 556:0.0 557:0.0 558:0.0 559:0.0 560:0.0 561:0.0 562:0.0 563:0.0 564:0.0 565:0.0 566:0.0 567:0.0 568:0.0 569:0.0 570:0.0 571:0.0 572:0.0 573:0.0 574:0.0 575:0.0 576:0.0 577:0.0 578:0.0 579:0.0 580:0.0 581:0.0 582:0.0 583:0.0 584:0.0 585:0.0 586:0.0 587:0.0 588:0.0 589:0.0 590:0.0 591:0.0 592:0.0 593:0.0 594:0.0 595:0.0 596:0.0 597:0.0 598:0.0 599:0.0 600:0.0 601:0.0 602:0.0 603:0.0 604:0.0 605:0.0 606:0.0 607:0.0 608:0.0 609:0.0 610:0.0 611:0.0 612:0.0 613:0.0 614:0.0 615:0.0 616:0.0 617:0.0 618:0.0 619:0.0 620:0.0 621:0.0 622:0.0 623:0.0 624:0.0 625:0.0 626:0.0 627:0.0 628:0.0 629:0.0 630:0.0 631:0.0 632:0.0 633:0.0 634:0.0 635:0.0 636:0.0 637:0.0 638:0.0 639:0.0 640:0.0 
-2.712048419481185E-19 0.0 1:31.0 2:255.0 3:247.0 4:253.0 5:255.0 6:223.0 7:255.0 8:254.0 9:191.0 10:236.0 11:254.0 12:231.0 13:253.0 14:255.0 15:182.0 16:228.0 17:255.0 18:255.0 19:255.0 20:205.0 21:123.0 22:185.0 23:255.0 24:255.0 25:237.0 26:255.0 27:253.0 28:254.0 29:255.0 30:255.0 31:246.0 32:255.0 33:255.0 34:255.0 35:182.0 36:251.0 37:255.0 38:255.0 39:255.0 40:143.0 41:191.0 42:191.0 43:125.0 44:251.0 45:237.0 46:127.0 47:255.0 48:252.0 49:31.0 50:127.0 51:253.0 52:247.0 53:223.0 54:255.0 55:255.0 56:239.0 57:255.0 58:223.0 59:255.0 60:255.0 61:218.0 62:184.0 63:63.0 64:248.0 65:173.0 66:220.0 67:253.0 68:215.0 69:191.0 70:254.0 71:182.0 72:61.0 73:191.0 74:159.0 75:118.0 76:251.0 77:239.0 78:255.0 79:255.0 80:21.0 81:125.0 82:81.0 83:121.0 84:239.0 85:47.0 86:95.0 87:123.0 88:184.0 89:45.0 90:236.0 91:255.0 92:46.0 93:223.0 94:95.0 95:155.0 96:112.0 97:254.0 98:245.0 99:255.0 100:110.0 101:95.0 102:83.0 103:127.0 104:231.0 105:47.0 106:95.0 107:127.0 108:248.0 109:109.0 110:236.0 111:247.0 112:175.0 113:255.0 114:95.0 115:159.0 116:112.0 117:254.0 118:213.0 119:255.0 120:227.0 121:11.0 122:191.0 123:127.0 124:253.0 125:240.0 126:223.0 127:125.0 128:119.0 129:125.0 130:207.0 131:126.0 132:125.0 133:191.0 134:191.0 135:150.0 136:49.0 137:239.0 138:255.0 139:255.0 140:140.0 141:202.0 142:189.0 143:190.0 144:252.0 145:237.0 146:252.0 147:57.0 148:87.0 149:191.0 150:221.0 151:190.0 152:53.0 153:188.0 154:191.0 155:102.0 156:107.0 157:231.0 158:179.0 159:255.0 160:17.0 161:191.0 162:254.0 163:254.0 164:251.0 165:255.0 166:215.0 167:255.0 168:254.0 169:63.0 170:255.0 171:247.0 172:247.0 173:253.0 174:255.0 175:255.0 176:237.0 177:255.0 178:255.0 179:255.0 180:247.0 181:251.0 182:255.0 183:126.0 184:254.0 185:237.0 186:215.0 187:255.0 188:255.0 189:255.0 190:254.0 191:244.0 192:255.0 193:253.0 194:255.0 195:246.0 196:231.0 197:255.0 198:255.0 199:255.0 200:143.0 201:35.0 202:223.0 203:98.0 204:158.0 205:119.0 206:145.0 207:190.0 208:230.0 209:95.0 210:76.0 211:92.0 212:167.0 213:40.0 214:236.0 215:182.0 216:228.0 217:255.0 218:235.0 219:147.0 220:199.0 221:139.0 222:189.0 223:255.0 224:251.0 225:252.0 226:253.0 227:249.0 228:87.0 229:191.0 230:89.0 231:118.0 232:183.0 233:188.0 234:159.0 235:246.0 236:108.0 237:239.0 238:59.0 239:255.0 240:157.0 241:11.0 242:254.0 243:119.0 244:249.0 245:254.0 246:189.0 247:253.0 248:87.0 249:191.0 250:91.0 251:254.0 252:246.0 253:188.0 254:159.0 255:182.0 256:228.0 257:239.0 258:59.0 259:255.0 260:133.0 261:63.0 262:183.0 263:238.0 264:255.0 265:255.0 266:126.0 267:255.0 268:255.0 269:127.0 270:207.0 271:222.0 272:247.0 273:253.0 274:255.0 275:190.0 276:228.0 277:255.0 278:255.0 279:255.0 280:173.0 281:111.0 282:50.0 283:244.0 284:223.0 285:237.0 286:61.0 287:248.0 288:220.0 289:239.0 290:123.0 291:253.0 292:255.0 293:205.0 294:255.0 295:222.0 296:254.0 297:239.0 298:223.0 299:255.0 300:159.0 301:43.0 302:159.0 303:115.0 304:255.0 305:237.0 306:255.0 307:251.0 308:127.0 309:63.0 310:76.0 311:253.0 312:175.0 313:249.0 314:255.0 315:182.0 316:244.0 317:255.0 318:255.0 319:255.0 320:141.0 321:175.0 322:51.0 323:228.0 324:251.0 325:253.0 326:189.0 327:249.0 328:95.0 329:191.0 330:221.0 331:245.0 332:247.0 333:233.0 334:207.0 335:254.0 336:254.0 337:239.0 338:155.0 339:255.0 340:149.0 341:34.0 342:223.0 343:98.0 344:223.0 345:247.0 346:209.0 347:190.0 348:230.0 349:223.0 350:69.0 351:92.0 352:167.0 353:40.0 354:252.0 355:54.0 356:228.0 357:239.0 358:123.0 359:147.0 360:197.0 361:7.0 362:142.0 363:199.0 364:157.0 365:252.0 366:171.0 367:239.0 368:239.0 369:62.0 370:171.0 371:250.0 372:246.0 373:240.0 374:226.0 375:149.0 376:72.0 377:255.0 378:239.0 379:46.0 380:156.0 381:130.0 382:191.0 383:242.0 384:249.0 385:238.0 386:191.0 387:252.0 388:215.0 389:159.0 390:187.0 391:218.0 392:243.0 393:172.0 394:174.0 395:244.0 396:108.0 397:239.0 398:255.0 399:191.0 400:145.0 401:182.0 402:250.0 403:195.0 404:243.0 405:190.0 406:222.0 407:191.0 408:234.0 409:159.0 410:220.0 411:181.0 412:157.0 413:0.0 414:0.0 415:0.0 416:0.0 417:0.0 418:0.0 419:0.0 420:0.0 421:0.0 422:0.0 423:0.0 424:0.0 425:0.0 426:0.0 427:0.0 428:0.0 429:0.0 430:0.0 431:0.0 432:0.0 433:0.0 434:0.0 435:0.0 436:0.0 437:0.0 438:0.0 439:0.0 440:0.0 441:0.0 442:0.0 443:0.0 444:0.0 445:0.0 446:0.0 447:0.0 448:0.0 449:0.0 450:0.0 451:0.0 452:0.0 453:0.0 454:0.0 455:0.0 456:0.0 457:0.0 458:0.0 459:0.0 460:0.0 461:0.0 462:0.0 463:0.0 464:0.0 465:0.0 466:0.0 467:0.0 468:0.0 469:0.0 470:0.0 471:0.0 472:0.0 473:0.0 474:0.0 475:0.0 476:0.0 477:0.0 478:0.0 479:0.0 480:0.0 481:0.0 482:0.0 483:0.0 484:0.0 485:0.0 486:0.0 487:0.0 488:0.0 489:0.0 490:0.0 491:0.0 492:0.0 493:0.0 494:0.0 495:0.0 496:0.0 497:0.0 498:0.0 499:0.0 500:0.0 501:0.0 502:0.0 503:0.0 504:0.0 505:0.0 506:0.0 507:0.0 508:0.0 509:0.0 510:0.0 511:0.0 512:0.0 513:0.0 514:0.0 515:0.0 516:0.0 517:0.0 518:0.0 519:0.0 520:0.0 521:0.0 522:0.0 523:0.0 524:0.0 525:0.0 526:0.0 527:0.0 528:0.0 529:0.0 530:0.0 531:0.0 532:0.0 533:0.0 534:0.0 535:0.0 536:0.0 537:0.0 538:0.0 539:0.0 540:0.0 541:0.0 542:0.0 543:0.0 544:0.0 545:0.0 546:0.0 547:0.0 548:0.0 549:0.0 550:0.0 551:0.0 552:0.0 553:0.0 554:0.0 555:0.0 556:0.0 557:0.0 558:0.0 559:0.0 560:0.0 561:0.0 562:0.0 563:0.0 564:0.0 565:0.0 566:0.0 567:0.0 568:0.0 569:0.0 570:0.0 571:0.0 572:0.0 573:0.0 574:0.0 575:0.0 576:0.0 577:0.0 578:0.0 579:0.0 580:0.0 581:0.0 582:0.0 583:0.0 584:0.0 585:0.0 586:0.0 587:0.0 588:0.0 589:0.0 590:0.0 591:0.0 592:0.0 593:0.0 594:0.0 595:0.0 596:0.0 597:0.0 598:0.0 599:0.0 600:0.0 601:0.0 602:0.0 603:0.0 604:0.0 605:0.0 606:0.0 607:0.0 608:0.0 609:0.0 610:0.0 611:0.0 612:0.0 613:0.0 614:0.0 615:0.0 616:0.0 617:0.0 618:0.0 619:0.0 620:0.0 621:0.0 622:0.0 623:0.0 624:0.0 625:0.0 626:0.0 627:0.0 628:0.0 629:0.0 630:0.0 631:0.0 632:0.0 633:0.0 634:0.0 635:0.0 636:0.0 637:0.0 638:0.0 639:0.0 640:0.0 
-3.747673431407868E-18 2.6165147431402243E-18 1:2.0 2:161.0 3:16.0 4:155.0 5:253.0 6:205.0 7:180.0 8:239.0 9:158.0 10:29.0 11:80.0 12:27.0 13:172.0 14:156.0 15:108.0 16:4.0 17:201.0 18:27.0 19:147.0 20:17.0 21:47.0 22:207.0 23:71.0 24:78.0 25:213.0 26:19.0 27:238.0 28:252.0 29:85.0 30:192.0 31:121.0 32:198.0 33:97.0 34:104.0 35:189.0 36:164.0 37:88.0 38:234.0 39:18.0 40:239.0 41:146.0 42:221.0 43:62.0 44:252.0 45:54.0 46:198.0 47:188.0 48:119.0 49:189.0 50:72.0 51:214.0 52:242.0 53:60.0 54:158.0 55:180.0 56:97.0 57:230.0 58:51.0 59:191.0 60:193.0 61:128.0 62:144.0 63:27.0 64:251.0 65:120.0 66:237.0 67:177.0 68:83.0 69:158.0 70:89.0 71:81.0 72:48.0 73:180.0 74:215.0 75:40.0 76:104.0 77:209.0 78:59.0 79:19.0 80:17.0 81:89.0 82:31.0 83:99.0 84:101.0 85:50.0 86:74.0 87:111.0 88:55.0 89:96.0 90:232.0 91:126.0 92:228.0 93:127.0 94:39.0 95:145.0 96:116.0 97:54.0 98:116.0 99:28.0 100:238.0 101:59.0 102:111.0 103:96.0 104:69.0 105:117.0 106:31.0 107:206.0 108:55.0 109:73.0 110:232.0 111:188.0 112:204.0 113:43.0 114:8.0 115:149.0 116:180.0 117:30.0 118:172.0 119:84.0 120:108.0 121:35.0 122:222.0 123:98.0 124:218.0 125:118.0 126:147.0 127:186.0 128:240.0 129:95.0 130:76.0 131:93.0 132:231.0 133:104.0 134:204.0 135:183.0 136:100.0 137:255.0 138:251.0 139:151.0 140:199.0 141:34.0 142:181.0 143:96.0 144:139.0 145:213.0 146:165.0 147:184.0 148:79.0 149:31.0 150:69.0 151:89.0 152:151.0 153:136.0 154:220.0 155:126.0 156:4.0 157:221.0 158:27.0 159:147.0 160:149.0 161:63.0 162:78.0 163:99.0 164:218.0 165:116.0 166:151.0 167:234.0 168:80.0 169:87.0 170:66.0 171:253.0 172:198.0 173:121.0 174:202.0 175:183.0 176:224.0 177:126.0 178:169.0 179:23.0 180:143.0 181:26.0 182:158.0 183:82.0 184:188.0 185:51.0 186:162.0 187:56.0 188:103.0 189:61.0 190:15.0 191:90.0 192:241.0 193:47.0 194:175.0 195:34.0 196:208.0 197:183.0 198:187.0 199:133.0 200:129.0 201:104.0 202:177.0 203:252.0 204:227.0 205:180.0 206:79.0 207:115.0 208:21.0 209:35.0 210:172.0 211:255.0 212:40.0 213:223.0 214:119.0 215:2.0 216:16.0 217:210.0 218:150.0 219:109.0 220:16.0 221:233.0 222:248.0 223:59.0 224:103.0 225:52.0 226:141.0 227:91.0 228:48.0 229:109.0 230:72.0 231:119.0 232:12.0 233:191.0 234:159.0 235:2.0 236:48.0 237:142.0 238:185.0 239:93.0 240:78.0 241:249.0 242:241.0 243:58.0 244:227.0 245:48.0 246:205.0 247:91.0 248:52.0 249:41.0 250:73.0 251:247.0 252:12.0 253:191.0 254:159.0 255:2.0 256:48.0 257:134.0 258:189.0 259:93.0 260:72.0 261:17.0 262:205.0 263:43.0 264:254.0 265:148.0 266:135.0 267:239.0 268:247.0 269:86.0 270:0.0 271:218.0 272:66.0 273:113.0 274:233.0 275:49.0 276:96.0 277:120.0 278:234.0 279:19.0 280:207.0 281:57.0 282:189.0 283:120.0 284:101.0 285:116.0 286:143.0 287:83.0 288:55.0 289:97.0 290:40.0 291:124.0 292:8.0 293:59.0 294:25.0 295:144.0 296:48.0 297:30.0 298:186.0 299:20.0 300:40.0 301:237.0 302:125.0 303:57.0 304:101.0 305:116.0 306:79.0 307:87.0 308:56.0 309:113.0 310:232.0 311:118.0 312:8.0 313:211.0 314:85.0 315:1.0 316:49.0 317:148.0 318:220.0 319:84.0 320:122.0 321:149.0 322:94.0 323:207.0 324:245.0 325:38.0 326:34.0 327:175.0 328:114.0 329:180.0 330:154.0 331:83.0 332:246.0 333:245.0 334:115.0 335:177.0 336:107.0 337:103.0 338:117.0 339:63.0 340:235.0 341:149.0 342:94.0 343:95.0 344:247.0 345:38.0 346:34.0 347:111.0 348:112.0 349:52.0 350:138.0 351:83.0 352:246.0 353:85.0 354:103.0 355:177.0 356:105.0 357:126.0 358:244.0 359:52.0 360:234.0 361:88.0 362:188.0 363:187.0 364:242.0 365:169.0 366:237.0 367:81.0 368:87.0 369:171.0 370:27.0 371:172.0 372:24.0 373:191.0 374:191.0 375:64.0 376:122.0 377:133.0 378:179.0 379:125.0 380:0.0 381:83.0 382:51.0 383:131.0 384:133.0 385:24.0 386:135.0 387:168.0 388:80.0 389:46.0 390:224.0 391:202.0 392:199.0 393:165.0 394:134.0 395:212.0 396:228.0 397:102.0 398:173.0 399:126.0 400:205.0 401:143.0 402:153.0 403:213.0 404:217.0 405:148.0 406:52.0 407:138.0 408:144.0 409:12.0 410:134.0 411:57.0 412:92.0 413:0.0 414:0.0 415:0.0 416:0.0 417:0.0 418:0.0 419:0.0 420:0.0 421:0.0 422:0.0 423:0.0 424:0.0 425:0.0 426:0.0 427:0.0 428:0.0 429:0.0 430:0.0 431:0.0 432:0.0 433:0.0 434:0.0 435:0.0 436:0.0 437:0.0 438:0.0 439:0.0 440:0.0 441:0.0 442:0.0 443:0.0 444:0.0 445:0.0 446:0.0 447:0.0 448:0.0 449:0.0 450:0.0 451:0.0 452:0.0 453:0.0 454:0.0 455:0.0 456:0.0 457:0.0 458:0.0 459:0.0 460:0.0 461:0.0 462:0.0 463:0.0 464:0.0 465:0.0 466:0.0 467:0.0 468:0.0 469:0.0 470:0.0 471:0.0 472:0.0 473:0.0 474:0.0 475:0.0 476:0.0 477:0.0 478:0.0 479:0.0 480:0.0 481:0.0 482:0.0 483:0.0 484:0.0 485:0.0 486:0.0 487:0.0 488:0.0 489:0.0 490:0.0 491:0.0 492:0.0 493:0.0 494:0.0 495:0.0 496:0.0 497:0.0 498:0.0 499:0.0 500:0.0 501:0.0 502:0.0 503:0.0 504:0.0 505:0.0 506:0.0 507:0.0 508:0.0 509:0.0 510:0.0 511:0.0 512:0.0 513:0.0 514:0.0 515:0.0 516:0.0 517:0.0 518:0.0 519:0.0 520:0.0 521:0.0 522:0.0 523:0.0 524:0.0 525:0.0 526:0.0 527:0.0 528:0.0 529:0.0 530:0.0 531:0.0 532:0.0 533:0.0 534:0.0 535:0.0 536:0.0 537:0.0 538:0.0 539:0.0 540:0.0 541:0.0 542:0.0 543:0.0 544:0.0 545:0.0 546:0.0 547:0.0 548:0.0 549:0.0 550:0.0 551:0.0 552:0.0 553:0.0 554:0.0 555:0.0 556:0.0 557:0.0 558:0.0 559:0.0 560:0.0 561:0.0 562:0.0 563:0.0 564:0.0 565:0.0 566:0.0 567:0.0 568:0.0 569:0.0 570:0.0 571:0.0 572:0.0 573:0.0 574:0.0 575:0.0 576:0.0 577:0.0 578:0.0 579:0.0 580:0.0 581:0.0 582:0.0 583:0.0 584:0.0 585:0.0 586:0.0 587:0.0 588:0.0 589:0.0 590:0.0 591:0.0 592:0.0 593:0.0 594:0.0 595:0.0 596:0.0 597:0.0 598:0.0 599:0.0 600:0.0 601:0.0 602:0.0 603:0.0 604:0.0 605:0.0 606:0.0 607:0.0 608:0.0 609:0.0 610:0.0 611:0.0 612:0.0 613:0.0 614:0.0 615:0.0 616:0.0 617:0.0 618:0.0 619:0.0 620:0.0 621:0.0 622:0.0 623:0.0 624:0.0 625:0.0 626:0.0 627:0.0 628:0.0 629:0.0 630:0.0 631:0.0 632:0.0 633:0.0 634:0.0 635:0.0 636:0.0 637:0.0 638:0.0 639:0.0 640:0.0 
-5.331407902277665E-20 5.09834806887503E-19 1:131.0 2:190.0 3:151.0 4:157.0 5:244.0 6:174.0 7:188.0 8:103.0 9:63.0 10:171.0 11:90.0 12:246.0 13:172.0 14:186.0 15:164.0 16:100.0 17:239.0 18:63.0 19:55.0 20:129.0 21:207.0 22:255.0 23:254.0 24:255.0 25:254.0 26:191.0 27:255.0 28:253.0 29:63.0 30:255.0 31:255.0 32:183.0 33:237.0 34:255.0 35:159.0 36:65.0 37:255.0 38:255.0 39:255.0 40:231.0 41:159.0 42:189.0 43:254.0 44:243.0 45:255.0 46:255.0 47:255.0 48:255.0 49:127.0 50:255.0 51:254.0 52:255.0 53:223.0 54:255.0 55:222.0 56:245.0 57:255.0 58:255.0 59:255.0 60:181.0 61:95.0 62:252.0 63:255.0 64:247.0 65:191.0 66:95.0 67:255.0 68:248.0 69:191.0 70:238.0 71:255.0 72:190.0 73:255.0 74:255.0 75:223.0 76:242.0 77:255.0 78:253.0 79:255.0 80:243.0 81:139.0 82:177.0 83:126.0 84:251.0 85:189.0 86:223.0 87:248.0 88:121.0 89:255.0 90:252.0 91:247.0 92:247.0 93:255.0 94:254.0 95:182.0 96:225.0 97:255.0 98:191.0 99:255.0 100:21.0 101:255.0 102:246.0 103:255.0 104:239.0 105:253.0 106:127.0 107:255.0 108:216.0 109:127.0 110:237.0 111:255.0 112:126.0 113:223.0 114:255.0 115:159.0 116:244.0 117:255.0 118:221.0 119:255.0 120:191.0 121:111.0 122:211.0 123:254.0 124:205.0 125:108.0 126:95.0 127:255.0 128:248.0 129:15.0 130:252.0 131:247.0 132:175.0 133:219.0 134:255.0 135:255.0 136:230.0 137:254.0 138:213.0 139:255.0 140:231.0 141:222.0 142:172.0 143:188.0 144:247.0 145:173.0 146:127.0 147:124.0 148:171.0 149:191.0 150:183.0 151:183.0 152:27.0 153:207.0 154:251.0 155:79.0 156:219.0 157:251.0 158:247.0 159:255.0 160:18.0 161:166.0 162:237.0 163:246.0 164:223.0 165:252.0 166:167.0 167:254.0 168:237.0 169:63.0 170:178.0 171:251.0 172:155.0 173:239.0 174:255.0 175:125.0 176:117.0 177:255.0 178:255.0 179:127.0 180:231.0 181:220.0 182:253.0 183:189.0 184:254.0 185:173.0 186:111.0 187:95.0 188:188.0 189:175.0 190:255.0 191:190.0 192:8.0 193:223.0 194:255.0 195:75.0 196:123.0 197:205.0 198:215.0 199:125.0 200:66.0 201:143.0 202:191.0 203:254.0 204:255.0 205:255.0 206:255.0 207:255.0 208:251.0 209:63.0 210:254.0 211:255.0 212:247.0 213:236.0 214:255.0 215:159.0 216:103.0 217:255.0 218:251.0 219:255.0 220:231.0 221:220.0 222:63.0 223:253.0 224:247.0 225:172.0 226:94.0 227:125.0 228:191.0 229:191.0 230:254.0 231:182.0 232:56.0 233:255.0 234:255.0 235:211.0 236:123.0 237:215.0 238:247.0 239:127.0 240:11.0 241:46.0 242:173.0 243:246.0 244:223.0 245:255.0 246:255.0 247:254.0 248:239.0 249:63.0 250:195.0 251:251.0 252:19.0 253:108.0 254:255.0 255:126.0 256:196.0 257:255.0 258:255.0 259:179.0 260:145.0 261:43.0 262:148.0 263:246.0 264:221.0 265:255.0 266:255.0 267:249.0 268:127.0 269:127.0 270:127.0 271:246.0 272:63.0 273:222.0 274:253.0 275:182.0 276:253.0 277:239.0 278:191.0 279:255.0 280:21.0 281:139.0 282:86.0 283:127.0 284:248.0 285:109.0 286:254.0 287:253.0 288:119.0 289:125.0 290:238.0 291:246.0 292:183.0 293:223.0 294:255.0 295:182.0 296:125.0 297:239.0 298:181.0 299:255.0 300:44.0 301:167.0 302:172.0 303:214.0 304:215.0 305:252.0 306:171.0 307:238.0 308:238.0 309:63.0 310:179.0 311:250.0 312:218.0 313:233.0 314:235.0 315:253.0 316:115.0 317:255.0 318:255.0 319:127.0 320:191.0 321:135.0 322:173.0 323:215.0 324:223.0 325:252.0 326:43.0 327:110.0 328:238.0 329:63.0 330:178.0 331:250.0 332:82.0 333:241.0 334:227.0 335:157.0 336:91.0 337:123.0 338:239.0 339:127.0 340:238.0 341:95.0 342:95.0 343:118.0 344:237.0 345:61.0 346:95.0 347:127.0 348:248.0 349:127.0 350:232.0 351:254.0 352:238.0 353:255.0 354:223.0 355:191.0 356:244.0 357:254.0 358:253.0 359:223.0 360:239.0 361:63.0 362:246.0 363:244.0 364:229.0 365:127.0 366:95.0 367:251.0 368:248.0 369:63.0 370:254.0 371:246.0 372:174.0 373:239.0 374:127.0 375:223.0 376:247.0 377:255.0 378:221.0 379:255.0 380:253.0 381:53.0 382:165.0 383:194.0 384:238.0 385:254.0 386:131.0 387:238.0 388:253.0 389:15.0 390:128.0 391:248.0 392:202.0 393:123.0 394:235.0 395:188.0 396:52.0 397:122.0 398:239.0 399:23.0 400:239.0 401:88.0 402:186.0 403:77.0 404:253.0 405:62.0 406:220.0 407:167.0 408:220.0 409:247.0 410:170.0 411:242.0 412:128.0 413:0.0 414:0.0 415:0.0 416:0.0 417:0.0 418:0.0 419:0.0 420:0.0 421:0.0 422:0.0 423:0.0 424:0.0 425:0.0 426:0.0 427:0.0 428:0.0 429:0.0 430:0.0 431:0.0 432:0.0 433:0.0 434:0.0 435:0.0 436:0.0 437:0.0 438:0.0 439:0.0 440:0.0 441:0.0 442:0.0 443:0.0 444:0.0 445:0.0 446:0.0 447:0.0 448:0.0 449:0.0 450:0.0 451:0.0 452:0.0 453:0.0 454:0.0 455:0.0 456:0.0 457:0.0 458:0.0 459:0.0 460:0.0 461:0.0 462:0.0 463:0.0 464:0.0 465:0.0 466:0.0 467:0.0 468:0.0 469:0.0 470:0.0 471:0.0 472:0.0 473:0.0 474:0.0 475:0.0 476:0.0 477:0.0 478:0.0 479:0.0 480:0.0 481:0.0 482:0.0 483:0.0 484:0.0 485:0.0 486:0.0 487:0.0 488:0.0 489:0.0 490:0.0 491:0.0 492:0.0 493:0.0 494:0.0 495:0.0 496:0.0 497:0.0 498:0.0 499:0.0 500:0.0 501:0.0 502:0.0 503:0.0 504:0.0 505:0.0 506:0.0 507:0.0 508:0.0 509:0.0 510:0.0 511:0.0 512:0.0 513:0.0 514:0.0 515:0.0 516:0.0 517:0.0 518:0.0 519:0.0 520:0.0 521:0.0 522:0.0 523:0.0 524:0.0 525:0.0 526:0.0 527:0.0 528:0.0 529:0.0 530:0.0 531:0.0 532:0.0 533:0.0 534:0.0 535:0.0 536:0.0 537:0.0 538:0.0 539:0.0 540:0.0 541:0.0 542:0.0 543:0.0 544:0.0 545:0.0 546:0.0 547:0.0 548:0.0 549:0.0 550:0.0 551:0.0 552:0.0 553:0.0 554:0.0 555:0.0 556:0.0 557:0.0 558:0.0 559:0.0 560:0.0 561:0.0 562:0.0 563:0.0 564:0.0 565:0.0 566:0.0 567:0.0 568:0.0 569:0.0 570:0.0 571:0.0 572:0.0 573:0.0 574:0.0 575:0.0 576:0.0 577:0.0 578:0.0 579:0.0 580:0.0 581:0.0 582:0.0 583:0.0 584:0.0 585:0.0 586:0.0 587:0.0 588:0.0 589:0.0 590:0.0 591:0.0 592:0.0 593:0.0 594:0.0 595:0.0 596:0.0 597:0.0 598:0.0 599:0.0 600:0.0 601:0.0 602:0.0 603:0.0 604:0.0 605:0.0 606:0.0 607:0.0 608:0.0 609:0.0 610:0.0 611:0.0 612:0.0 613:0.0 614:0.0 615:0.0 616:0.0 617:0.0 618:0.0 619:0.0 620:0.0 621:0.0 622:0.0 623:0.0 624:0.0 625:0.0 626:0.0 627:0.0 628:0.0 629:0.0 630:0.0 631:0.0 632:0.0 633:0.0 634:0.0 635:0.0 636:0.0 637:0.0 638:0.0 639:0.0 640:0.0 
-1.3993788750852424E-18 9.90489298485988E-19 1:31.0 2:63.0 3:239.0 4:191.0 5:254.0 6:147.0 7:235.0 8:248.0 9:55.0 10:196.0 11:246.0 12:231.0 13:251.0 14:238.0 15:187.0 16:96.0 17:127.0 18:237.0 19:255.0 20:254.0 21:2.0 22:143.0 23:235.0 24:191.0 25:246.0 26:130.0 27:191.0 28:246.0 29:158.0 30:65.0 31:90.0 32:195.0 33:53.0 34:239.0 35:177.0 36:64.0 37:127.0 38:123.0 39:19.0 40:197.0 41:7.0 42:36.0 43:239.0 44:153.0 45:246.0 46:179.0 47:248.0 48:75.0 49:63.0 50:83.0 51:123.0 52:243.0 53:140.0 54:238.0 55:252.0 56:108.0 57:127.0 58:191.0 59:55.0 60:149.0 61:35.0 62:179.0 63:104.0 64:202.0 65:254.0 66:145.0 67:222.0 68:253.0 69:71.0 70:97.0 71:248.0 72:239.0 73:11.0 74:204.0 75:254.0 76:32.0 77:94.0 78:139.0 79:23.0 80:245.0 81:139.0 82:28.0 83:246.0 84:217.0 85:239.0 86:253.0 87:189.0 88:87.0 89:255.0 90:126.0 91:126.0 92:182.0 93:189.0 94:190.0 95:246.0 96:236.0 97:239.0 98:187.0 99:255.0 100:141.0 101:105.0 102:249.0 103:57.0 104:97.0 105:116.0 106:205.0 107:67.0 108:55.0 109:99.0 110:232.0 111:108.0 112:8.0 113:179.0 114:21.0 115:80.0 116:48.0 117:136.0 118:190.0 119:84.0 120:88.0 121:10.0 122:158.0 123:18.0 124:153.0 125:119.0 126:166.0 127:184.0 128:103.0 129:60.0 130:9.0 131:90.0 132:246.0 133:172.0 134:158.0 135:52.0 136:192.0 137:231.0 138:59.0 139:147.0 140:145.0 141:18.0 142:207.0 143:11.0 144:191.0 145:214.0 146:135.0 147:239.0 148:247.0 149:22.0 150:0.0 151:90.0 152:194.0 153:117.0 154:239.0 155:48.0 156:64.0 157:127.0 158:107.0 159:19.0 160:205.0 161:16.0 162:207.0 163:75.0 164:190.0 165:150.0 166:131.0 167:175.0 168:231.0 169:22.0 170:5.0 171:90.0 172:163.0 173:113.0 174:234.0 175:176.0 176:64.0 177:127.0 178:251.0 179:3.0 180:133.0 181:130.0 182:36.0 183:246.0 184:253.0 185:254.0 186:43.0 187:250.0 188:202.0 189:63.0 190:163.0 191:250.0 192:147.0 193:223.0 194:234.0 195:53.0 196:72.0 197:255.0 198:223.0 199:127.0 200:129.0 201:202.0 202:249.0 203:58.0 204:216.0 205:91.0 206:213.0 207:148.0 208:231.0 209:143.0 210:28.0 211:228.0 212:11.0 213:44.0 214:223.0 215:38.0 216:209.0 217:232.0 218:187.0 219:219.0 220:65.0 221:2.0 222:154.0 223:22.0 224:159.0 225:114.0 226:136.0 227:184.0 228:102.0 229:188.0 230:9.0 231:82.0 232:229.0 233:172.0 234:130.0 235:164.0 236:197.0 237:166.0 238:59.0 239:175.0 240:65.0 241:72.0 242:184.0 243:186.0 244:228.0 245:25.0 246:204.0 247:81.0 248:7.0 249:175.0 250:37.0 251:174.0 252:8.0 253:190.0 254:159.0 255:0.0 256:82.0 257:128.0 258:53.0 259:105.0 260:0.0 261:2.0 262:205.0 263:58.0 264:159.0 265:213.0 266:197.0 267:190.0 268:231.0 269:30.0 270:5.0 271:92.0 272:3.0 273:172.0 274:254.0 275:38.0 276:64.0 277:249.0 278:123.0 279:147.0 280:193.0 281:38.0 282:16.0 283:254.0 284:219.0 285:103.0 286:151.0 287:184.0 288:64.0 289:63.0 290:132.0 291:119.0 292:34.0 293:76.0 294:222.0 295:55.0 296:105.0 297:254.0 298:189.0 299:183.0 300:211.0 301:26.0 302:48.0 303:122.0 304:233.0 305:127.0 306:203.0 307:249.0 308:88.0 309:111.0 310:97.0 311:246.0 312:139.0 313:159.0 314:159.0 315:118.0 316:64.0 317:110.0 318:141.0 319:223.0 320:141.0 321:90.0 322:233.0 323:114.0 324:238.0 325:91.0 326:209.0 327:19.0 328:64.0 329:171.0 330:132.0 331:173.0 332:171.0 333:46.0 334:223.0 335:98.0 336:148.0 337:170.0 338:249.0 339:201.0 340:210.0 341:3.0 342:159.0 343:99.0 344:142.0 345:246.0 346:211.0 347:190.0 348:119.0 349:13.0 350:73.0 351:88.0 352:227.0 353:56.0 354:158.0 355:182.0 356:100.0 357:126.0 358:187.0 359:23.0 360:197.0 361:3.0 362:154.0 363:199.0 364:149.0 365:114.0 366:138.0 367:40.0 368:55.0 369:60.0 370:235.0 371:82.0 372:231.0 373:181.0 374:162.0 375:176.0 376:64.0 377:39.0 378:47.0 379:62.0 380:141.0 381:130.0 382:207.0 383:70.0 384:156.0 385:54.0 386:131.0 387:174.0 388:103.0 389:156.0 390:8.0 391:90.0 392:226.0 393:37.0 394:139.0 395:176.0 396:69.0 397:106.0 398:43.0 399:23.0 400:205.0 401:96.0 402:185.0 403:6.0 404:253.0 405:48.0 406:32.0 407:174.0 408:128.0 409:61.0 410:152.0 411:177.0 412:169.0 413:0.0 414:0.0 415:0.0 416:0.0 417:0.0 418:0.0 419:0.0 420:0.0 421:0.0 422:0.0 423:0.0 424:0.0 425:0.0 426:0.0 427:0.0 428:0.0 429:0.0 430:0.0 431:0.0 432:0.0 433:0.0 434:0.0 435:0.0 436:0.0 437:0.0 438:0.0 439:0.0 440:0.0 441:0.0 442:0.0 443:0.0 444:0.0 445:0.0 446:0.0 447:0.0 448:0.0 449:0.0 450:0.0 451:0.0 452:0.0 453:0.0 454:0.0 455:0.0 456:0.0 457:0.0 458:0.0 459:0.0 460:0.0 461:0.0 462:0.0 463:0.0 464:0.0 465:0.0 466:0.0 467:0.0 468:0.0 469:0.0 470:0.0 471:0.0 472:0.0 473:0.0 474:0.0 475:0.0 476:0.0 477:0.0 478:0.0 479:0.0 480:0.0 481:0.0 482:0.0 483:0.0 484:0.0 485:0.0 486:0.0 487:0.0 488:0.0 489:0.0 490:0.0 491:0.0 492:0.0 493:0.0 494:0.0 495:0.0 496:0.0 497:0.0 498:0.0 499:0.0 500:0.0 501:0.0 502:0.0 503:0.0 504:0.0 505:0.0 506:0.0 507:0.0 508:0.0 509:0.0 510:0.0 511:0.0 512:0.0 513:0.0 514:0.0 515:0.0 516:0.0 517:0.0 518:0.0 519:0.0 520:0.0 521:0.0 522:0.0 523:0.0 524:0.0 525:0.0 526:0.0 527:0.0 528:0.0 529:0.0 530:0.0 531:0.0 532:0.0 533:0.0 534:0.0 535:0.0 536:0.0 537:0.0 538:0.0 539:0.0 540:0.0 541:0.0 542:0.0 543:0.0 544:0.0 545:0.0 546:0.0 547:0.0 548:0.0 549:0.0 550:0.0 551:0.0 552:0.0 553:0.0 554:0.0 555:0.0 556:0.0 557:0.0 558:0.0 559:0.0 560:0.0 561:0.0 562:0.0 563:0.0 564:0.0 565:0.0 566:0.0 567:0.0 568:0.0 569:0.0 570:0.0 571:0.0 572:0.0 573:0.0 574:0.0 575:0.0 576:0.0 577:0.0 578:0.0 579:0.0 580:0.0 581:0.0 582:0.0 583:0.0 584:0.0 585:0.0 586:0.0 587:0.0 588:0.0 589:0.0 590:0.0 591:0.0 592:0.0 593:0.0 594:0.0 595:0.0 596:0.0 597:0.0 598:0.0 599:0.0 600:0.0 601:0.0 602:0.0 603:0.0 604:0.0 605:0.0 606:0.0 607:0.0 608:0.0 609:0.0 610:0.0 611:0.0 612:0.0 613:0.0 614:0.0 615:0.0 616:0.0 617:0.0 618:0.0 619:0.0 620:0.0 621:0.0 622:0.0 623:0.0 624:0.0 625:0.0 626:0.0 627:0.0 628:0.0 629:0.0 630:0.0 631:0.0 632:0.0 633:0.0 634:0.0 635:0.0 636:0.0 637:0.0 638:0.0 639:0.0 640:0.0 
-2.624420408156357E-18 2.337213467905215E-18 1:2.0 2:186.0 3:26.0 4:152.0 5:107.0 6:128.0 7:184.0 8:67.0 9:175.0 10:29.0 11:86.0 12:163.0 13:44.0 14:143.0 15:102.0 16:68.0 17:166.0 18:57.0 19:239.0 20:129.0 21:10.0 22:92.0 23:50.0 24:159.0 25:117.0 26:209.0 27:186.0 28:226.0 29:31.0 30:76.0 31:88.0 32:35.0 33:172.0 34:220.0 35:55.0 36:196.0 37:222.0 38:123.0 39:147.0 40:195.0 41:35.0 42:0.0 43:165.0 44:77.0 45:13.0 46:159.0 47:225.0 48:59.0 49:206.0 50:233.0 51:186.0 52:76.0 53:178.0 54:16.0 55:148.0 56:166.0 57:72.0 58:36.0 59:122.0 60:13.0 61:59.0 62:111.0 63:96.0 64:69.0 65:117.0 66:31.0 67:206.0 68:119.0 69:65.0 70:232.0 71:248.0 72:206.0 73:43.0 74:8.0 75:151.0 76:180.0 77:30.0 78:172.0 79:86.0 80:111.0 81:43.0 82:249.0 83:99.0 84:138.0 85:117.0 86:197.0 87:171.0 88:228.0 89:206.0 90:72.0 91:120.0 92:7.0 93:56.0 94:220.0 95:52.0 96:64.0 97:126.0 98:235.0 99:19.0 100:199.0 101:144.0 102:78.0 103:75.0 104:175.0 105:52.0 106:131.0 107:75.0 108:112.0 109:148.0 110:68.0 111:221.0 112:230.0 113:119.0 114:197.0 115:177.0 116:65.0 117:126.0 118:232.0 119:31.0 120:239.0 121:91.0 122:31.0 123:102.0 124:69.0 125:50.0 126:26.0 127:127.0 128:55.0 129:49.0 130:230.0 131:94.0 132:229.0 133:127.0 134:39.0 135:151.0 136:247.0 137:54.0 138:231.0 139:253.0 140:172.0 141:3.0 142:140.0 143:75.0 144:190.0 145:86.0 146:162.0 147:239.0 148:242.0 149:22.0 150:66.0 151:218.0 152:194.0 153:113.0 154:254.0 155:49.0 156:96.0 157:127.0 158:107.0 159:19.0 160:143.0 161:62.0 162:141.0 163:98.0 164:138.0 165:215.0 166:247.0 167:202.0 168:231.0 169:23.0 170:5.0 171:220.0 172:131.0 173:105.0 174:236.0 175:54.0 176:196.0 177:120.0 178:170.0 179:147.0 180:253.0 181:221.0 182:89.0 183:103.0 184:228.0 185:34.0 186:82.0 187:95.0 188:176.0 189:161.0 190:234.0 191:182.0 192:162.0 193:91.0 194:31.0 195:145.0 196:127.0 197:102.0 198:244.0 199:253.0 200:238.0 201:126.0 202:107.0 203:66.0 204:170.0 205:91.0 206:209.0 207:90.0 208:64.0 209:161.0 210:4.0 211:237.0 212:139.0 213:45.0 214:207.0 215:39.0 216:84.0 217:122.0 218:185.0 219:195.0 220:195.0 221:10.0 222:156.0 223:146.0 224:218.0 225:213.0 226:247.0 227:186.0 228:199.0 229:159.0 230:7.0 231:220.0 232:18.0 233:108.0 234:254.0 235:54.0 236:228.0 237:217.0 238:59.0 239:147.0 240:145.0 241:2.0 242:140.0 243:50.0 244:154.0 245:149.0 246:245.0 247:186.0 248:231.0 249:223.0 250:79.0 251:92.0 252:19.0 253:236.0 254:254.0 255:38.0 256:196.0 257:217.0 258:123.0 259:139.0 260:145.0 261:149.0 262:92.0 263:223.0 264:189.0 265:6.0 266:34.0 267:175.0 268:242.0 269:180.0 270:130.0 271:210.0 272:226.0 273:117.0 274:243.0 275:177.0 276:107.0 277:110.0 278:245.0 279:62.0 280:235.0 281:216.0 282:184.0 283:151.0 284:242.0 285:169.0 286:237.0 287:81.0 288:87.0 289:171.0 290:27.0 291:160.0 292:24.0 293:191.0 294:159.0 295:64.0 296:59.0 297:133.0 298:179.0 299:125.0 300:16.0 301:11.0 302:158.0 303:102.0 304:157.0 305:115.0 306:210.0 307:184.0 308:119.0 309:189.0 310:77.0 311:86.0 312:183.0 313:172.0 314:174.0 315:182.0 316:192.0 317:102.0 318:47.0 319:191.0 320:133.0 321:66.0 322:185.0 323:27.0 324:248.0 325:249.0 326:205.0 327:48.0 328:103.0 329:171.0 330:25.0 331:56.0 332:40.0 333:172.0 334:159.0 335:100.0 336:16.0 337:134.0 338:59.0 339:223.0 340:16.0 341:3.0 342:158.0 343:135.0 344:157.0 345:114.0 346:162.0 347:168.0 348:119.0 349:60.0 350:75.0 351:82.0 352:247.0 353:180.0 354:166.0 355:160.0 356:65.0 357:103.0 358:47.0 359:51.0 360:133.0 361:130.0 362:159.0 363:103.0 364:156.0 365:246.0 366:226.0 367:191.0 368:247.0 369:221.0 370:70.0 371:90.0 372:179.0 373:45.0 374:174.0 375:48.0 376:97.0 377:111.0 378:251.0 379:151.0 380:129.0 381:108.0 382:160.0 383:184.0 384:240.0 385:173.0 386:121.0 387:16.0 388:15.0 389:139.0 390:63.0 391:173.0 392:57.0 393:142.0 394:189.0 395:74.0 396:154.0 397:137.0 398:19.0 399:237.0 400:17.0 401:26.0 402:107.0 403:202.0 404:144.0 405:219.0 406:213.0 407:85.0 408:127.0 409:210.0 410:76.0 411:142.0 412:67.0 413:0.0 414:0.0 415:0.0 416:0.0 417:0.0 418:0.0 419:0.0 420:0.0 421:0.0 422:0.0 423:0.0 424:0.0 425:0.0 426:0.0 427:0.0 428:0.0 429:0.0 430:0.0 431:0.0 432:0.0 433:0.0 434:0.0 435:0.0 436:0.0 437:0.0 438:0.0 439:0.0 440:0.0 441:0.0 442:0.0 443:0.0 444:0.0 445:0.0 446:0.0 447:0.0 448:0.0 449:0.0 450:0.0 451:0.0 452:0.0 453:0.0 454:0.0 455:0.0 456:0.0 457:0.0 458:0.0 459:0.0 460:0.0 461:0.0 462:0.0 463:0.0 464:0.0 465:0.0 466:0.0 467:0.0 468:0.0 469:0.0 470:0.0 471:0.0 472:0.0 473:0.0 474:0.0 475:0.0 476:0.0 477:0.0 478:0.0 479:0.0 480:0.0 481:0.0 482:0.0 483:0.0 484:0.0 485:0.0 486:0.0 487:0.0 488:0.0 489:0.0 490:0.0 491:0.0 492:0.0 493:0.0 494:0.0 495:0.0 496:0.0 497:0.0 498:0.0 499:0.0 500:0.0 501:0.0 502:0.0 503:0.0 504:0.0 505:0.0 506:0.0 507:0.0 508:0.0 509:0.0 510:0.0 511:0.0 512:0.0 513:0.0 514:0.0 515:0.0 516:0.0 517:0.0 518:0.0 519:0.0 520:0.0 521:0.0 522:0.0 523:0.0 524:0.0 525:0.0 526:0.0 527:0.0 528:0.0 529:0.0 530:0.0 531:0.0 532:0.0 533:0.0 534:0.0 535:0.0 536:0.0 537:0.0 538:0.0 539:0.0 540:0.0 541:0.0 542:0.0 543:0.0 544:0.0 545:0.0 546:0.0 547:0.0 548:0.0 549:0.0 550:0.0 551:0.0 552:0.0 553:0.0 554:0.0 555:0.0 556:0.0 557:0.0 558:0.0 559:0.0 560:0.0 561:0.0 562:0.0 563:0.0 564:0.0 565:0.0 566:0.0 567:0.0 568:0.0 569:0.0 570:0.0 571:0.0 572:0.0 573:0.0 574:0.0 575:0.0 576:0.0 577:0.0 578:0.0 579:0.0 580:0.0 581:0.0 582:0.0 583:0.0 584:0.0 585:0.0 586:0.0 587:0.0 588:0.0 589:0.0 590:0.0 591:0.0 592:0.0 593:0.0 594:0.0 595:0.0 596:0.0 597:0.0 598:0.0 599:0.0 600:0.0 601:0.0 602:0.0 603:0.0 604:0.0 605:0.0 606:0.0 607:0.0 608:0.0 609:0.0 610:0.0 611:0.0 612:0.0 613:0.0 614:0.0 615:0.0 616:0.0 617:0.0 618:0.0 619:0.0 620:0.0 621:0.0 622:0.0 623:0.0 624:0.0 625:0.0 626:0.0 627:0.0 628:0.0 629:0.0 630:0.0 631:0.0 632:0.0 633:0.0 634:0.0 635:0.0 636:0.0 637:0.0 638:0.0 639:0.0 640:0.0 
